{
  "log_weights": [
    [
      -3.8637973484226453,
      -4.31101848913612,
      -3.70202312156081,
      -3.879282701455736,
      -3.714276749574478,
      -3.698032885489911,
      -3.7654301354285646,
      -3.6432222501358007,
      -3.920651940287252,
      -3.687539890500247,
      -3.994592825306677,
      -3.740840664607611,
      -4.042746331076769,
      -3.6390612813239276,
      -4.081269835137652,
      -3.726087969327451,
      -3.8755015719587798,
      -4.112606555783014,
      -3.6435164639414523,
      -3.92166486793902,
      -3.637881191727649,
      -4.222548803099192,
      -3.6410147928355237,
      -4.620362372697833,
      -3.682738767500128,
      -3.8640463680471466,
      -3.6680598340538575,
      -3.6866480803741526,
      -3.704128173435011,
      -3.637681556722783,
      -4.480879124973711,
      -3.8622540924937248,
      -3.8855096377519995,
      -3.6525165802358277,
      -3.7813874447616005,
      -3.9702324941103067,
      -3.8433404739731873,
      -4.366981553419481,
      -3.878047137263281,
      -3.7114932422418647,
      -4.557521218257106,
      -4.093746611617913,
      -4.676504732124336,
      -4.776781974674165,
      -3.638661237709207,
      -4.082709591166568,
      -3.942305320668826,
      -4.5734447201709045,
      -3.7211078687863797,
      -7.591460567082821
    ]
  ],
  "particles": [
    [
      [
        509.43374932991236,
        25.759613959122625
      ],
      [
        509.40301859001147,
        24.148061493762697
      ],
      [
        509.0653769429547,
        23.82604830260545
      ],
      [
        509.3226241752239,
        23.83855997111822
      ],
      [
        509.3909622187169,
        24.730337543488428
      ],
      [
        509.3610979093582,
        23.829104152163993
      ],
      [
        509.27614472874507,
        24.659147829877696
      ],
      [
        509.34063556677336,
        25.398430771656678
      ],
      [
        509.2522411251949,
        23.709569360874706
      ],
      [
        509.3205908811292,
        24.367655523582886
      ],
      [
        509.1689617467592,
        24.63704276486527
      ],
      [
        509.28164529906263,
        24.11000028330327
      ],
      [
        509.2009695797396,
        23.638134686004523
      ],
      [
        509.16589668123316,
        23.64871700864246
      ],
      [
        509.19799220096735,
        24.707093821720413
      ],
      [
        509.4143012006162,
        24.336063618345587
      ],
      [
        509.3095320261508,
        23.862655146788377
      ],
      [
        509.48888642005477,
        25.26694233057492
      ],
      [
        509.09866679153146,
        24.687454617635254
      ],
      [
        509.35899507389774,
        24.579027876993475
      ],
      [
        509.45246703189656,
        23.53807348590564
      ],
      [
        509.28801322774626,
        23.799988316098418
      ],
      [
        509.3049214745679,
        24.713391797097366
      ],
      [
        509.2270445958807,
        24.259867521335003
      ],
      [
        509.40007616615304,
        24.9423761616167
      ],
      [
        509.45308660720065,
        23.63172344677811
      ],
      [
        509.3234562997715,
        24.441026713439765
      ],
      [
        509.2525027114178,
        23.640899346145233
      ],
      [
        509.1732883698228,
        25.246473847170996
      ],
      [
        509.38908811576374,
        24.48602926498523
      ],
      [
        509.288591333246,
        24.248625672248398
      ],
      [
        509.1971299316663,
        24.356209772734246
      ],
      [
        509.1819240967847,
        23.8943921961419
      ],
      [
        509.2441609687409,
        24.72880462869528
      ],
      [
        509.0890856211409,
        23.357219255918622
      ],
      [
        509.28673917005136,
        23.662770150937664
      ],
      [
        509.296368544491,
        24.088813956926256
      ],
      [
        509.3290613888391,
        24.928842733762348
      ],
      [
        509.4555314330151,
        24.73662094524707
      ],
      [
        509.301305502273,
        23.871767805254933
      ],
      [
        509.20020563414556,
        24.21465690686075
      ],
      [
        509.5286014281523,
        25.636885804302505
      ],
      [
        509.3246412081718,
        24.400503473527174
      ],
      [
        509.21753236950656,
        24.738692899911648
      ],
      [
        509.4333642535037,
        24.378570883673298
      ],
      [
        509.23126035451503,
        25.29514723447
      ],
      [
        509.17916035655446,
        24.767158509002176
      ],
      [
        509.34473162220013,
        24.52558240805502
      ],
      [
        509.2324316492728,
        23.70336065284337
      ],
      [
        509.3019313323037,
        24.975075854798714
      ]
    ]
  ],
  "summary": {
    "log_weights_shape": [
      1,
      50
    ],
    "particles_shape": [
      1,
      50,
      2
    ],
    "source": "filterflow_row_173_time_93_vjp_subprocess",
    "target_time_index": 93,
    "theta": [
      0.9710526315789474,
      0.9842105263157894
    ],
    "transport_upstream_clip_fraction": 0.88,
    "upstream_shape": [
      1,
      50,
      50
    ]
  },
  "transport_upstream": [
    [
      [
        -11.504086407755473,
        -11.46780461769963,
        -11.453439479689175,
        -11.45923769807008,
        -11.480416615588307,
        -11.459854499776256,
        -11.47637853130608,
        -11.494104090050449,
        -11.454875726339809,
        -11.470889319797555,
        -11.473589296937797,
        -11.464358098106056,
        -11.45219620287434,
        -11.451677298590063,
        -11.475760844896898,
        -11.472202439821691,
        -11.459489288964727,
        -11.494379750941919,
        -11.473194774629262,
        -11.476385871971443,
        -11.455382665829367,
        -11.457642197030633,
        -11.478195229562782,
        -11.466498831085913,
        -11.48529919753936,
        -11.457466027637642,
        -11.472572640075093,
        -11.45336344133511,
        -11.487153187828284,
        -11.474976135614531,
        -11.467571402065355,
        -11.467986304883228,
        -11.457451785422297,
        -11.47723173104873,
        -11.44358525350974,
        -11.45458174427654,
        -11.464205815672646,
        -11.483475761633343,
        -11.481941444903317,
        -11.459514140137891,
        -11.464923401769253,
        -11.503409536103051,
        -11.471702337228422,
        -11.476878737080341,
        -11.473551208398867,
        -11.489473410797403,
        -11.476684316084189,
        -11.474898343062602,
        -11.454313288955095,
        -11.48391538016158
      ],
      [
        15.40462230719739,
        15.356038938416143,
        15.336803206207748,
        15.344567348534799,
        15.372927116853612,
        15.345393280902247,
        15.3675198936281,
        15.391255419245931,
        15.338726421699077,
        15.36016952897888,
        15.36378495106537,
        15.351423853764347,
        15.335138388239855,
        15.334443546056864,
        15.366692776593293,
        15.361927870953972,
        15.344904242971312,
        15.391624544769458,
        15.36325666338225,
        15.367529723194169,
        15.33940524234528,
        15.342430882410305,
        15.369952555336184,
        15.35429041629234,
        15.379465170217781,
        15.342194981629927,
        15.362423590029744,
        15.33670138655135,
        15.381947768066043,
        15.365642006485405,
        15.355726649492468,
        15.3562822278302,
        15.34217591049812,
        15.368662376335747,
        15.323607840053201,
        15.338332763090367,
        15.351219938973763,
        15.377023486416224,
        15.374968949542286,
        15.344937520097622,
        15.352180827339804,
        15.403715937774695,
        15.361258205298558,
        15.368189697448694,
        15.363733948357666,
        15.385054677840612,
        15.367929356739474,
        15.365537837858858,
        15.337973286232613,
        15.377612160487914
      ],
      [
        13.858602847514115,
        13.814895342097445,
        13.797590122414602,
        13.804575049588824,
        13.830088610268225,
        13.80531809076381,
        13.82522406002507,
        13.846577470472583,
        13.79932032255538,
        13.818611383490287,
        13.82186395910192,
        13.810743430806054,
        13.796092386827821,
        13.795467279527964,
        13.824479953076828,
        13.820193256944695,
        13.804878133046767,
        13.846909550281449,
        13.821388690767288,
        13.825232903088507,
        13.799931016251907,
        13.802653000808526,
        13.827412577977821,
        13.81332230296668,
        13.83597049968836,
        13.802440775207566,
        13.820639225281864,
        13.797498521455362,
        13.838203942152772,
        13.823534639045828,
        13.814614394724599,
        13.815114214803259,
        13.802423618068865,
        13.826251882310462,
        13.785719053113672,
        13.798966171820176,
        13.81055998105694,
        13.833773865106206,
        13.831925523095368,
        13.8049080704557,
        13.811424433945183,
        13.857787442007137,
        13.819590799437206,
        13.825826641831375,
        13.821818075064252,
        13.840999040129873,
        13.825592429111184,
        13.823440924860844,
        13.79864277232974,
        13.834303459406117
      ],
      [
        14.351055943322033,
        14.305795330670144,
        14.287875185435265,
        14.295108315768836,
        14.321528478079003,
        14.295877760249478,
        14.316491070380204,
        14.338603255229197,
        14.289666866695391,
        14.309643418280645,
        14.31301157126663,
        14.30149588491287,
        14.286324229149793,
        14.285676909219383,
        14.315720522255006,
        14.31128150219785,
        14.295422169027228,
        14.338947135197985,
        14.312519414695478,
        14.316500227674018,
        14.29029926084793,
        14.293117968698835,
        14.318757355367117,
        14.304166394996395,
        14.327619375195367,
        14.292898201850369,
        14.311743317622255,
        14.28778032951761,
        14.32993218104641,
        14.314741617332759,
        14.305504400082897,
        14.306021980822411,
        14.292880435048042,
        14.317555415414098,
        14.275582288271012,
        14.289300131529576,
        14.301305916440487,
        14.325344685161866,
        14.32343066396566,
        14.295453170235294,
        14.302201086891364,
        14.350211563107381,
        14.310657636899986,
        14.317115064393734,
        14.312964056780594,
        14.332826600338006,
        14.316872529133356,
        14.31464457309777,
        14.288965240326592,
        14.325893098123036
      ],
      [
        -0.07709595265035937,
        -0.07685280607886544,
        -0.07675653646121695,
        -0.07679539388577952,
        -0.07693732682719678,
        -0.07679952745305715,
        -0.07691026514288862,
        -0.07702905500496196,
        -0.07676616163264272,
        -0.07687347856327253,
        -0.0768915727693123,
        -0.0768297088330715,
        -0.07674820449924706,
        -0.0767447270027547,
        -0.07690612564667249,
        -0.07688227858750887,
        -0.07679707995097526,
        -0.07703090237799819,
        -0.07688892883287612,
        -0.07691031433719828,
        -0.07676955894569291,
        -0.07678470145282737,
        -0.07692243995432642,
        -0.07684405520031896,
        -0.07697004800935482,
        -0.07678352083346317,
        -0.0768847595269069,
        -0.07675602688147835,
        -0.07698247273761771,
        -0.07690086682754217,
        -0.07685124315758164,
        -0.07685402367633537,
        -0.07678342538762585,
        -0.07691598295868286,
        -0.07669049723584886,
        -0.0767641914781753,
        -0.07682868829490276,
        -0.07695782804478846,
        -0.07694754564549344,
        -0.0767972464939585,
        -0.07683349728031592,
        -0.07709141651745705,
        -0.07687892709270219,
        -0.0769136173291745,
        -0.0768913175146063,
        -0.0769980219775856,
        -0.07691231439460132,
        -0.07690034549184566,
        -0.07676239239409186,
        -0.07696077419870594
      ],
      [
        14.318476737200523,
        14.27331887342193,
        14.255439409800141,
        14.262656119764022,
        14.289016304054657,
        14.263423817481888,
        14.283990332081869,
        14.306052318713334,
        14.257227023655522,
        14.277158225254386,
        14.280518731991146,
        14.269029188098319,
        14.25389197443499,
        14.25324612402498,
        14.283221533224902,
        14.278792590457527,
        14.262969260525018,
        14.306395418019264,
        14.280027692694599,
        14.283999468587153,
        14.257857982171577,
        14.260670291102125,
        14.286251472237211,
        14.27169363569426,
        14.295093373854524,
        14.260451023159762,
        14.27925335748661,
        14.255344769220681,
        14.297400929264144,
        14.282244850574337,
        14.273028603293927,
        14.273545009041882,
        14.260433296690936,
        14.285052260881283,
        14.243174419490419,
        14.256861121037538,
        14.268839650884933,
        14.2928238477334,
        14.290914171673284,
        14.263000191355355,
        14.269732789154853,
        14.317634273864822,
        14.278170141434272,
        14.284612909528587,
        14.280471325370637,
        14.300288777758228,
        14.284370924862271,
        14.282148026645373,
        14.256526990091471,
        14.293371015708908
      ],
      [
        2.701299286395143,
        2.692779881193099,
        2.6894067722228425,
        2.6907682643587276,
        2.695741331558574,
        2.6909130968947226,
        2.694793140298238,
        2.698955316892708,
        2.6897440203897047,
        2.6935042067310446,
        2.6941381941737417,
        2.6919705965103633,
        2.6891148357183985,
        2.6889929906867165,
        2.694648100023227,
        2.6938125432697695,
        2.6908273409581276,
        2.6990200454198607,
        2.694045555541456,
        2.6947948639756696,
        2.689863055942191,
        2.69039362132611,
        2.69521972312546,
        2.692473266628258,
        2.6968878211339002,
        2.690352254611822,
        2.6938994707879473,
        2.689388917493289,
        2.6973231605834616,
        2.6944638407479258,
        2.692725119328131,
        2.6928225435516744,
        2.6903489103665876,
        2.69499348196591,
        2.6870928801671865,
        2.689674989828774,
        2.6919348387444595,
        2.696459656224744,
        2.69609938001149,
        2.690833176315578,
        2.692103336680062,
        2.701140348705798,
        2.693695113103614,
        2.694910594692544,
        2.6941292505219483,
        2.6978679771319998,
        2.6948649422800397,
        2.6944455741113966,
        2.689611953257026,
        2.6965628839974256
      ],
      [
        -15.614737116441908,
        -15.5654910838796,
        -15.54599298157715,
        -15.553863024669013,
        -15.582609612423688,
        -15.554700222526673,
        -15.577128636161333,
        -15.601187907817078,
        -15.547942429198553,
        -15.569678014560962,
        -15.573342750009823,
        -15.560813050743128,
        -15.544305455950298,
        -15.543601136311135,
        -15.576290237477776,
        -15.571460339836737,
        -15.554204514252936,
        -15.60156206811117,
        -15.57280725662808,
        -15.577138599799978,
        -15.548630508771572,
        -15.551697417734493,
        -15.579594478705697,
        -15.563718712395186,
        -15.58923684303661,
        -15.551458299332385,
        -15.571962820384291,
        -15.545889773128655,
        -15.591753302836363,
        -15.575225135154767,
        -15.56517453542094,
        -15.565737691694316,
        -15.551438968075589,
        -15.578286702018724,
        -15.532617634259339,
        -15.547543401194746,
        -15.560606354610915,
        -15.586761855339898,
        -15.584679295148366,
        -15.554238245270092,
        -15.561580349229851,
        -15.613818384389704,
        -15.57078154012606,
        -15.577807575921723,
        -15.573291051639222,
        -15.594902590005303,
        -15.57754368423687,
        -15.575119545696818,
        -15.547179021171573,
        -15.587358558763937
      ],
      [
        13.092158118368948,
        13.050867839819897,
        13.034519678691842,
        13.04111830714064,
        13.065220850106378,
        13.041820254707678,
        13.060625331953581,
        13.080797800204625,
        13.036154190775687,
        13.054378366965008,
        13.057451060126647,
        13.046945548394243,
        13.033104774798757,
        13.032514238818996,
        13.05992237755547,
        13.055872755513134,
        13.041404628683882,
        13.081111514466691,
        13.057002076325457,
        13.060633685954778,
        13.036731110290937,
        13.039302556532894,
        13.062692814758131,
        13.049381797016526,
        13.070777443882134,
        13.039102067987614,
        13.056294059742012,
        13.03443314368861,
        13.072887366665412,
        13.059029343755343,
        13.050602430134036,
        13.051074607854442,
        13.039085859717906,
        13.061596310920656,
        13.023305134337553,
        13.03581962621142,
        13.04677224426333,
        13.068702293335267,
        13.066956173172292,
        13.041432910415864,
        13.04758888891527,
        13.091387808551614,
        13.055303616687638,
        13.061194588203596,
        13.05740771368813,
        13.075527882818099,
        13.0609733285283,
        13.05894081239751,
        13.035514112206094,
        13.069202598625008
      ],
      [
        11.762674137913406,
        11.725576809325942,
        11.710888773146971,
        11.716817323314071,
        11.738472298470787,
        11.71744798942873,
        11.734343446524646,
        11.752467438646425,
        11.712357303609474,
        11.728730849056205,
        11.73149151601878,
        11.72205281920172,
        11.709617550077379,
        11.709086981913304,
        11.733711875820713,
        11.730073485263935,
        11.717074569444264,
        11.752749295816477,
        11.731088125676342,
        11.734350952192766,
        11.712875638035346,
        11.715185958758166,
        11.736200980347242,
        11.724241671368318,
        11.743464630621837,
        11.71500582944677,
        11.730452006842457,
        11.710811025610214,
        11.745360294723316,
        11.732909527919775,
        11.725338351493429,
        11.725762580456301,
        11.714991267096302,
        11.73521582440774,
        11.700813044634375,
        11.712056713446113,
        11.72189711377865,
        11.741600207701703,
        11.740031402750141,
        11.71709997921967,
        11.72263082970542,
        11.761982051606122,
        11.72956214141344,
        11.734854895875422,
        11.731452571329394,
        11.747732671437614,
        11.734656104703115,
        11.732829986754464,
        11.711782223812186,
        11.74204970793226
      ],
      [
        3.741494302303656,
        3.7296943117646593,
        3.725022312606022,
        3.726908077391398,
        3.7337961340709778,
        3.727108680897623,
        3.732482820801357,
        3.7382477355191823,
        3.725489425636087,
        3.730697554865816,
        3.7315756731907754,
        3.728573394121565,
        3.72461795949583,
        3.7244491953407075,
        3.7322819295616143,
        3.731124623206092,
        3.7269899027415794,
        3.738337389196862,
        3.7314473620048894,
        3.7324852082188937,
        3.7256542984599315,
        3.72638916977572,
        3.73307366877794,
        3.729269628482382,
        3.735384104806149,
        3.7263318738934776,
        3.7312450240871105,
        3.7249975825180863,
        3.735987081336112,
        3.7320267171783894,
        3.7296184626328013,
        3.7297534022076673,
        3.726327241872675,
        3.7327603084577174,
        3.721817405254221,
        3.7253938133314044,
        3.7285238670372967,
        3.734791065532003,
        3.734292056997135,
        3.7269979851324364,
        3.728757248828489,
        3.7412741621429197,
        3.7309619739580797,
        3.7326455036071042,
        3.7315632855881153,
        3.7367416915425493,
        3.732582271723792,
        3.7320014165695894,
        3.725306503133967,
        3.73493404344092
      ],
      [
        15.646811884592303,
        15.597464694062046,
        15.577926540037552,
        15.585812749255405,
        15.614618386363935,
        15.586651666829956,
        15.609126151439872,
        15.633234844072383,
        15.579879992086314,
        15.601660225261613,
        15.605332488569507,
        15.592777051616935,
        15.576235548006315,
        15.575529781599979,
        15.608286030572767,
        15.60344621167299,
        15.58615494030482,
        15.633609772941993,
        15.604795895212407,
        15.60913613554517,
        15.58056948506723,
        15.583642693873255,
        15.611597059156152,
        15.59568868188845,
        15.621259230199023,
        15.583403084289818,
        15.603949724383106,
        15.577823119585037,
        15.623780859145334,
        15.607218740386472,
        15.597147495370319,
        15.597711808442348,
        15.583383713324023,
        15.610286596120142,
        15.56452371795914,
        15.57948014442537,
        15.59256993090309,
        15.618779158545024,
        15.616692320495027,
        15.586188740610016,
        15.59354592623785,
        15.645891265341016,
        15.602766017616501,
        15.609806485833758,
        15.605280684003509,
        15.626936615373278,
        15.609542052079927,
        15.607112934033587,
        15.579115015916669,
        15.619377087678071
      ],
      [
        12.389225732496815,
        12.350152374470065,
        12.334681964114836,
        12.340926304936104,
        12.363734755829375,
        12.341590564165315,
        12.359385976106578,
        12.378475362324206,
        12.33622871744505,
        12.353474417547119,
        12.3563821344294,
        12.346440675190106,
        12.3333430279698,
        12.332784198517063,
        12.358720764104167,
        12.354888570728543,
        12.341197253560404,
        12.378772232922095,
        12.355957257062895,
        12.359393881572254,
        12.336774661516246,
        12.339208043977912,
        12.361342453482735,
        12.34874611894117,
        12.368993009966639,
        12.339018319883396,
        12.355287254669452,
        12.334600075271217,
        12.37098964867233,
        12.357875678272135,
        12.349901214922495,
        12.35034804090115,
        12.339002981853536,
        12.360304822143712,
        12.324069540995882,
        12.335912116020644,
        12.346276675948815,
        12.367029276537695,
        12.365376907489019,
        12.341224016815055,
        12.34704947405014,
        12.388496781461807,
        12.354349989593299,
        12.35992466836169,
        12.356341115308897,
        12.37348839260516,
        12.359715288362004,
        12.357791900260393,
        12.335623005398682,
        12.367502719885517
      ],
      [
        12.409313022890053,
        12.370176313213548,
        12.35468081988445,
        12.360935284977414,
        12.383780716387983,
        12.36160062120436,
        12.379424885764426,
        12.39854522258806,
        12.35623008104558,
        12.373503742490309,
        12.376416173803873,
        12.366458595964195,
        12.353339712853215,
        12.352779977341479,
        12.378758595219498,
        12.37492018851119,
        12.361206672904688,
        12.398842574517554,
        12.375990607561791,
        12.379432804047639,
        12.356776910284045,
        12.359214238114147,
        12.381384535278215,
        12.368767777650067,
        12.389047496003762,
        12.359024206410174,
        12.375319518858927,
        12.354598798270228,
        12.391047371962722,
        12.37791213920624,
        12.369924746448056,
        12.370372296888709,
        12.359008843511978,
        12.380345221574009,
        12.344051190296783,
        12.355912966298964,
        12.366294330822479,
        12.387080578672572,
        12.385425530552771,
        12.36123347955198,
        12.367068381901207,
        12.40858288996915,
        12.374380734146586,
        12.379964451429064,
        12.376375088176957,
        12.39355016723791,
        12.379754731950788,
        12.377828225360888,
        12.355623386927046,
        12.387554789638502
      ],
      [
        1.306042724456829,
        1.3019237039407139,
        1.3002928500580688,
        1.3009511136230996,
        1.3033555262949226,
        1.3010211382519343,
        1.3028970882746735,
        1.3049094459895294,
        1.3004559051171234,
        1.3022739058245765,
        1.302580430425942,
        1.3015324254262506,
        1.3001517025926423,
        1.3000927921202114,
        1.302826963206753,
        1.302422982491169,
        1.3009796763829613,
        1.3049407413822238,
        1.3025356408640043,
        1.3028979216500718,
        1.3005134572432646,
        1.3007699786376197,
        1.3031033354686359,
        1.301775459825876,
        1.3039098389458983,
        1.300749978374597,
        1.3024650108044493,
        1.3002842175308447,
        1.3041203198517468,
        1.3027378762673192,
        1.3018972272982776,
        1.3019443306307312,
        1.3007483614759514,
        1.3029939508395831,
        1.2991741136412311,
        1.300422529747603,
        1.3015151370161007,
        1.3037028268361006,
        1.3035286380190803,
        1.3009824977016438,
        1.3015966035548094,
        1.3059658801716156,
        1.3023662065482327,
        1.3029538759316024,
        1.3025761062877714,
        1.3043837314970115,
        1.3029318035897834,
        1.3027290445884823,
        1.3003920523931234,
        1.3037527361083356
      ],
      [
        12.370232908290097,
        12.33121945016639,
        12.315772756126501,
        12.322007524302144,
        12.344781009580325,
        12.32267076521439,
        12.340438896586392,
        12.35949901855745,
        12.317317138266235,
        12.334536400513556,
        12.337439659832727,
        12.327513440963717,
        12.31443587258583,
        12.313877899825012,
        12.339774704361556,
        12.33594838578204,
        12.322278057559117,
        12.359795434049328,
        12.337015433808068,
        12.340446789932898,
        12.31786224539895,
        12.320291897457576,
        12.342392374660438,
        12.329815350443244,
        12.350031202754083,
        12.32010246421226,
        12.336346458535926,
        12.315690992819412,
        12.352024780589892,
        12.338930914055734,
        12.330968675649267,
        12.331414816638608,
        12.320087149695775,
        12.341356334022082,
        12.305176601973104,
        12.317001022195424,
        12.327349693135133,
        12.348070479750861,
        12.346420643802764,
        12.322304779785393,
        12.328121306528162,
        12.36950507474533,
        12.335410630297813,
        12.340976763020139,
        12.337398703595005,
        12.354519693919803,
        12.340767704002376,
        12.33884726447664,
        12.316712354783338,
        12.348543197304636
      ],
      [
        14.543869780785366,
        14.498001068461521,
        14.479840156833962,
        14.487170468003702,
        14.51394559881943,
        14.487950250367746,
        14.5088405109504,
        14.53124978440613,
        14.481655910255792,
        14.501900857113537,
        14.505314262971849,
        14.493643857433266,
        14.478268362650963,
        14.477612345643465,
        14.508059610113767,
        14.503560949532933,
        14.487488538042477,
        14.531598284579639,
        14.504815494023356,
        14.508849791277177,
        14.482296800949896,
        14.48515337959439,
        14.51113724464484,
        14.496350247196952,
        14.520118330279642,
        14.484930660064979,
        14.504028969685722,
        14.479744026478135,
        14.522462209870008,
        14.507067553099066,
        14.497706229071802,
        14.498230763775467,
        14.484912654556503,
        14.50991915600871,
        14.467382098256838,
        14.481284247813896,
        14.49345133663649,
        14.517813078612475,
        14.515873341554435,
        14.48751995576776,
        14.494358534164018,
        14.543014055887083,
        14.502928702283063,
        14.509472888645295,
        14.50526611010419,
        14.525395517177444,
        14.509227094798616,
        14.506969205024733,
        14.480944857174897,
        14.518368859784596
      ],
      [
        -15.485747227568313,
        -15.43690800558631,
        -15.417570972793419,
        -15.42537600320039,
        -15.453885121753224,
        -15.42620628515176,
        -15.448449422623218,
        -15.472309945958443,
        -15.419504316459298,
        -15.441060348959587,
        -15.444694810839655,
        -15.432268616646658,
        -15.41589738744244,
        -15.415198886032002,
        -15.447617949765709,
        -15.442827950840563,
        -15.425714671814406,
        -15.472681015397121,
        -15.444163741050271,
        -15.448459303954449,
        -15.420186711959188,
        -15.423228285865658,
        -15.450894895387842,
        -15.43515027527063,
        -15.460457606280194,
        -15.422991142767769,
        -15.443326280507478,
        -15.417468616927085,
        -15.462953278162257,
        -15.446561646017356,
        -15.43659407206444,
        -15.437152576228428,
        -15.422971971202209,
        -15.44959792195476,
        -15.404306116260775,
        -15.419108584737554,
        -15.432063627985464,
        -15.458003063909306,
        -15.455937707286788,
        -15.425748124187093,
        -15.433029576650332,
        -15.48483608495834,
        -15.442154758544124,
        -15.44912275381245,
        -15.444643539537857,
        -15.466076549766612,
        -15.448861042078425,
        -15.446456928810559,
        -15.41874721477714,
        -15.458594838098366
      ],
      [
        2.2486784649813174,
        2.241586543286906,
        2.2387786213585015,
        2.239911986351276,
        2.244051782772028,
        2.240032551224025,
        2.2432624673198163,
        2.246727243297277,
        2.2390593613320386,
        2.2421895032206742,
        2.242717261813231,
        2.2409128596831405,
        2.238535600774299,
        2.238434171695267,
        2.2431417295161173,
        2.2424461759033676,
        2.2399611642700368,
        2.246781126125371,
        2.2426401454053986,
        2.243263902183528,
        2.2391584516789655,
        2.239600117272664,
        2.2436175733319255,
        2.2413313040498166,
        2.245006170325953,
        2.2395656818289296,
        2.242518538132583,
        2.238763758308692,
        2.2453685657295708,
        2.2429883441187908,
        2.2415409571398706,
        2.241622057281033,
        2.2395628979344244,
        2.2434292403967584,
        2.2368524374432095,
        2.2390018973047936,
        2.240883093370852,
        2.2446497473203535,
        2.2443498378041187,
        2.239966021874191,
        2.2410233583467067,
        2.2485461583683097,
        2.2423484219495196,
        2.243360241442226,
        2.2427098167303083,
        2.24582209460963,
        2.2433222383977687,
        2.242973138179783,
        2.2389494229336226,
        2.2447356785870545
      ],
      [
        5.167152112163941,
        5.150855856948599,
        5.144403640702882,
        5.147007956707801,
        5.156520636333875,
        5.14728499811082,
        5.154706898589873,
        5.162668474595031,
        5.145048742334717,
        5.15224137548486,
        5.153454091739633,
        5.149307825200024,
        5.14384521301101,
        5.143612143015403,
        5.154429459815447,
        5.152831173810928,
        5.147120960763629,
        5.1627922898818,
        5.153276888899912,
        5.154710195708235,
        5.145276438247401,
        5.146291324697772,
        5.155522883093253,
        5.150269352482277,
        5.158713686937545,
        5.146212196810616,
        5.1529974522057085,
        5.1443694874700325,
        5.159546421454463,
        5.154077001386146,
        5.150751106287441,
        5.1509374631953895,
        5.146205799806067,
        5.155090120055366,
        5.139977536463742,
        5.14491669794759,
        5.1492394263311745,
        5.1578946761652675,
        5.15720552557553,
        5.147132122866151,
        5.149561735846535,
        5.166848089865733,
        5.152606548744711,
        5.154931570000655,
        5.153436983968758,
        5.160588568096155,
        5.154844244260452,
        5.154042060241342,
        5.144796119100036,
        5.1580921343315405
      ],
      [
        12.107021978944754,
        12.068838640079582,
        12.053720617191132,
        12.059822723424357,
        12.082111639796768,
        12.060471852051235,
        12.077861917269928,
        12.096516482413188,
        12.055232138328064,
        12.07208501313124,
        12.074926497576065,
        12.065211486475961,
        12.052412179546492,
        12.05186607919988,
        12.077211857572271,
        12.073466954506655,
        12.060087500337815,
        12.096806590845397,
        12.07451129813377,
        12.077869642663648,
        12.055765646798408,
        12.058143601287465,
        12.079773829693341,
        12.06746441646271,
        12.08725012058526,
        12.05795819875854,
        12.07385655716137,
        12.053640593624614,
        12.08920127953706,
        12.076386021239687,
        12.06859320148412,
        12.06902984958959,
        12.057943210100763,
        12.078759833685938,
        12.043349925533299,
        12.054922748501244,
        12.065051222835464,
        12.085331117388584,
        12.083716386264815,
        12.060113653974797,
        12.065806418018767,
        12.10630963207232,
        12.07294064125814,
        12.078388339107205,
        12.074886412795612,
        12.091643106683302,
        12.078183728398441,
        12.076304151536815,
        12.054640223286995,
        12.085793776568552
      ],
      [
        13.959106122411375,
        13.915081647998601,
        13.897650930004703,
        13.904686512217072,
        13.930385098503368,
        13.905434941963497,
        13.925485270300687,
        13.946993536739372,
        13.899393677642676,
        13.918824638307848,
        13.922100801759065,
        13.910899626840688,
        13.896142332765194,
        13.89551269215621,
        13.924735767051969,
        13.92041798358697,
        13.904991793651279,
        13.947328024807474,
        13.921622086754908,
        13.925494177494459,
        13.900008800120167,
        13.902750524643734,
        13.92768965949413,
        13.913497201110076,
        13.936309643677175,
        13.902536759972195,
        13.920867186108628,
        13.897558664750765,
        13.938559283177065,
        13.923783597556751,
        13.914798663181479,
        13.915302107980128,
        13.902519478409076,
        13.92652054640425,
        13.885693771120687,
        13.899036958588782,
        13.910714846704902,
        13.934097078992133,
        13.9322353327134,
        13.905021948167784,
        13.911585568648347,
        13.958284803543235,
        13.91981115702777,
        13.926092222060126,
        13.92205458496808,
        13.941374651343262,
        13.925856310817675,
        13.92368920375185,
        13.898711213789213,
        13.934630513936163
      ],
      [
        0.7731947353521421,
        0.7707562201962217,
        0.7697907329173012,
        0.770180433739047,
        0.7716038781522001,
        0.7702218892545106,
        0.771332476721677,
        0.7725238193643298,
        0.7698872636898959,
        0.7709635443884877,
        0.7711450110461963,
        0.770524578090053,
        0.7697071717327149,
        0.7696722959462738,
        0.7712909617449332,
        0.7710517997660606,
        0.7701973432743466,
        0.7725423466547613,
        0.7711184950273551,
        0.7713329700910426,
        0.7699213353171922,
        0.7700731994085472,
        0.7714545778149771,
        0.7706684577004065,
        0.7719320386445391,
        0.77006135898573,
        0.7710766810888193,
        0.7697856223458952,
        0.7720566461518179,
        0.7712382210870136,
        0.7707405456702983,
        0.7707684314721857,
        0.7700604017601379,
        0.7713898206537233,
        0.7691284260175745,
        0.7698675050254047,
        0.7705143431203538,
        0.7718094847108489,
        0.7717063626048448,
        0.7701990135326859,
        0.7705625723992721,
        0.7731492425090243,
        0.7710181876495876,
        0.77136609577299,
        0.7711424510986494,
        0.7722125893637324,
        0.7713530286518525,
        0.7712329926151932,
        0.7698494620245213,
        0.7718390316665608
      ],
      [
        14.267623189083933,
        14.222625708119843,
        14.204809745258665,
        14.212000824332183,
        14.238267387707355,
        14.212765795492361,
        14.233259265992821,
        14.255242897201477,
        14.206591010218915,
        14.22645142409796,
        14.229799995648165,
        14.21835125805645,
        14.203267805769944,
        14.202624249164328,
        14.232493197604349,
        14.22807998468438,
        14.212312852941444,
        14.255584777954807,
        14.229310700328366,
        14.233268370048862,
        14.207219727820673,
        14.21002204854576,
        14.2355123754755,
        14.221006242591724,
        14.24432287416654,
        14.209803559356128,
        14.228539115251797,
        14.204715440804991,
        14.246622234054932,
        14.231519983743032,
        14.222336468916163,
        14.222851040595799,
        14.209785895844687,
        14.234317423242487,
        14.192588315328045,
        14.20622640714185,
        14.218162394004043,
        14.242061408501701,
        14.240158514853233,
        14.212343673917742,
        14.219052360201205,
        14.266783717843731,
        14.227459746353079,
        14.233879632291472,
        14.229752757397163,
        14.249499826056999,
        14.233638507058679,
        14.231423503694248,
        14.205893462896327,
        14.242606633153663
      ],
      [
        -7.495286029113375,
        -7.4716472642016765,
        -7.462287910106121,
        -7.46606563774861,
        -7.479864390553447,
        -7.466467504098285,
        -7.47723344745791,
        -7.48878222483195,
        -7.463223671458505,
        -7.473657047831516,
        -7.475416170652824,
        -7.46940174471902,
        -7.461477874870792,
        -7.461139791871888,
        -7.476831004695485,
        -7.474512588186709,
        -7.466229557389932,
        -7.488961826858166,
        -7.475159126551925,
        -7.4772382301398705,
        -7.463553959004949,
        -7.465026116988201,
        -7.478417085391417,
        -7.470796501801614,
        -7.483045551315509,
        -7.464911336905432,
        -7.4747537856785335,
        -7.462238368648182,
        -7.4842534862195205,
        -7.4763197411050895,
        -7.471495316639446,
        -7.471765639304282,
        -7.464902057639448,
        -7.477789334808236,
        -7.455867561614942,
        -7.463032132593659,
        -7.469302527766438,
        -7.481857523584588,
        -7.480857866389465,
        -7.46624574873659,
        -7.469770058420673,
        -7.494845025242221,
        -7.474186755100308,
        -7.477559347770077,
        -7.475391354732325,
        -7.4857651868612285,
        -7.477432676174909,
        -7.476269056730253,
        -7.462857225230403,
        -7.482143949337667
      ],
      [
        12.792235808976745,
        12.75189143068233,
        12.73591778215911,
        12.74236524562309,
        12.765915634369248,
        12.743051112591846,
        12.761425392856465,
        12.78113573918618,
        12.737514849947333,
        12.755321536754074,
        12.758323838982397,
        12.748058993251092,
        12.73453529165726,
        12.733958283998286,
        12.760738542121674,
        12.756781691033073,
        12.742645007956025,
        12.781442266710572,
        12.75788514074737,
        12.76143355547964,
        12.738078553075203,
        12.740591091222068,
        12.763445512635625,
        12.750439430959204,
        12.771344934659659,
        12.740395195577895,
        12.757193343794553,
        12.735833229547001,
        12.773406522179332,
        12.759865966427634,
        12.751632101146525,
        12.752093461961797,
        12.740379358616083,
        12.762374128106991,
        12.724960146712514,
        12.737187949770851,
        12.747889659265875,
        12.76931732279501,
        12.767611203706496,
        12.742672641794643,
        12.748687595776056,
        12.791483145837468,
        12.756225590350668,
        12.761981608273365,
        12.75828148554777,
        12.775986547945685,
        12.761765417335567,
        12.759779463194507,
        12.736889434647237,
        12.769806166817897
      ],
      [
        9.684047576177596,
        9.65350585660108,
        9.64141339875603,
        9.64629429243742,
        9.664122535166904,
        9.646813511161616,
        9.660723308238348,
        9.675644541277684,
        9.642622419655465,
        9.656102534061231,
        9.658375353140814,
        9.650604604077987,
        9.640366818315092,
        9.639930008854671,
        9.660203344778264,
        9.657207907955017,
        9.646506079632605,
        9.675876590402948,
        9.658043247428955,
        9.660729487551514,
        9.643049157247754,
        9.644951212472076,
        9.662252590245268,
        9.652406655913312,
        9.668232653452934,
        9.64480291449145,
        9.657519539556136,
        9.641349390280062,
        9.66979332759318,
        9.659542782804493,
        9.653309537552547,
        9.65365879941354,
        9.644790925508918,
        9.6614415249317,
        9.633118190273962,
        9.642374947914872,
        9.650476413948159,
        9.666697699746914,
        9.665406124242015,
        9.646526999150655,
        9.651080472163063,
        9.68347779105493,
        9.656786925607133,
        9.66114437744316,
        9.65834329051454,
        9.671746472660407,
        9.660980715409531,
        9.659477297658848,
        9.642148964380604,
        9.667067767094457
      ],
      [
        12.510131699100386,
        12.47067702570957,
        12.4550556402282,
        12.461360919325928,
        12.484391956994315,
        12.462031661034828,
        12.480000737701259,
        12.49927641648812,
        12.456617488263323,
        12.474031488474346,
        12.476967581651305,
        12.466929104102334,
        12.45370363745799,
        12.453139354410608,
        12.47932903392108,
        12.475459442321041,
        12.461634512127194,
        12.499576184234497,
        12.476538557923295,
        12.480008720316063,
        12.457168760181238,
        12.459625889926631,
        12.481976308263171,
        12.469257046588282,
        12.489701526226876,
        12.45943431432214,
        12.475862017002848,
        12.454972952234577,
        12.491717650051159,
        12.478475700929655,
        12.470423415105856,
        12.470874601641661,
        12.45941882660905,
        12.480928550720726,
        12.444339650889459,
        12.45629779713807,
        12.4667635043989,
        12.487718628800641,
        12.486050134347412,
        12.461661536563394,
        12.467543844206498,
        12.5093956342609,
        12.474915605193681,
        12.480544687032902,
        12.47692616222682,
        12.494240779127743,
        12.48033326370203,
        12.47839110533159,
        12.456005865096921,
        12.48819669246347
      ],
      [
        -14.676930379614442,
        -14.630642018433633,
        -14.612314954206191,
        -14.619712329754845,
        -14.646732423912088,
        -14.620499246279872,
        -14.641580630038453,
        -14.664194923986686,
        -14.614147319798045,
        -14.634577485912617,
        -14.638022120724047,
        -14.626244943660904,
        -14.61072877981501,
        -14.610066760965005,
        -14.640792584808032,
        -14.636252766373074,
        -14.62003330978872,
        -14.664546612557952,
        -14.637518788581856,
        -14.641589995270133,
        -14.614794073945331,
        -14.617676787179231,
        -14.643898376349572,
        -14.62897609394899,
        -14.652961629155197,
        -14.617452030008227,
        -14.63672506840151,
        -14.612217944362104,
        -14.655326952695942,
        -14.639791451550044,
        -14.630344481584,
        -14.630873815210018,
        -14.61743385976892,
        -14.642669143526525,
        -14.599742917935405,
        -14.613772257048817,
        -14.626050661508112,
        -14.650635286941164,
        -14.648677803397598,
        -14.62006501495204,
        -14.626966158906862,
        -14.67606682576354,
        -14.635614734748142,
        -14.642218793301844,
        -14.637973527309994,
        -14.65828709657664,
        -14.641970750708653,
        -14.639692203697738,
        -14.6134297613544,
        -14.651196152906858
      ],
      [
        8.13101808473065,
        8.105374336880184,
        8.095221144978398,
        8.099319290354165,
        8.114288420040085,
        8.099755242036885,
        8.111434326706405,
        8.123962643480455,
        8.096236275348296,
        8.107554585502736,
        8.109462912872468,
        8.102938357859212,
        8.094342404511103,
        8.093975646128895,
        8.110997749721,
        8.10848269072424,
        8.099497113263503,
        8.124157478916695,
        8.109184066911839,
        8.111439515043896,
        8.096594577086597,
        8.098191599953891,
        8.112718357950275,
        8.104451414868421,
        8.117739399173676,
        8.098067084501762,
        8.108744346004695,
        8.095167401533667,
        8.119049788198396,
        8.110443121987858,
        8.105209501492764,
        8.105502752273047,
        8.09805701819085,
        8.112037363079002,
        8.088256238036983,
        8.096028490619608,
        8.102830725564377,
        8.116450605800377,
        8.115366160096706,
        8.099514677921075,
        8.103337911039354,
        8.13053967597642,
        8.108129221262523,
        8.111787869095815,
        8.109435992125535,
        8.120689707636918,
        8.111650453521928,
        8.110388138686778,
        8.0958387480363,
        8.116761325493952
      ],
      [
        14.364361199788199,
        14.319058624784445,
        14.301121865292803,
        14.308361701659333,
        14.334806358824567,
        14.309131859512997,
        14.329764280807318,
        14.351896966467653,
        14.302915207669628,
        14.322910280062215,
        14.326281555754951,
        14.31475519289342,
        14.29956947107334,
        14.298921550994919,
        14.32899301828588,
        14.324549882691821,
        14.308675845899664,
        14.352241165256967,
        14.325788942891982,
        14.329773446591108,
        14.30354818813208,
        14.306369509284128,
        14.332032666929026,
        14.317428178879883,
        14.340902902978236,
        14.306149538683803,
        14.325012126277938,
        14.301026921431632,
        14.343217853094835,
        14.328013205794106,
        14.318767424467493,
        14.319285485070266,
        14.306131755409389,
        14.330829612624605,
        14.288817571047378,
        14.302548132493609,
        14.31456504829607,
        14.33862610401739,
        14.336710308279784,
        14.308706875849799,
        14.315461048683957,
        14.363516036725558,
        14.323925438991377,
        14.330388853342765,
        14.326233997216937,
        14.34611495588172,
        14.330146093221312,
        14.32791607158675,
        14.302212930803831,
        14.339175025427217
      ],
      [
        12.306146406150134,
        12.267335065164081,
        12.251968395857597,
        12.25817086355135,
        12.280826366167132,
        12.258830668409443,
        12.276506748370803,
        12.295468125511707,
        12.253504777012221,
        12.270634831376794,
        12.273523049771839,
        12.263648255694223,
        12.25063843831343,
        12.250083356243742,
        12.275845997128586,
        12.27203950156903,
        12.258439995255879,
        12.295763005362973,
        12.273101021536197,
        12.276514600824223,
        12.254047060106805,
        12.256464124859841,
        12.278450106055224,
        12.265938239664512,
        12.286049359649619,
        12.256275673011897,
        12.272435512026224,
        12.251887056141914,
        12.288032609350848,
        12.275006578249693,
        12.26708558983524,
        12.26752941950064,
        12.256260437835373,
        12.27741943283566,
        12.241427137231298,
        12.253190298644869,
        12.263485356194497,
        12.284098794569847,
        12.282457505931715,
        12.258466579042238,
        12.264252972087743,
        12.30542234329476,
        12.271504532036227,
        12.277041828278328,
        12.273482305716218,
        12.290514597275907,
        12.276833852333237,
        12.274923362034219,
        12.252903126732898,
        12.284569063114395
      ],
      [
        14.660974338396162,
        14.614736299658794,
        14.596429159719651,
        14.603818493203235,
        14.630809212435002,
        14.604604554231083,
        14.625663019339818,
        14.648252728133185,
        14.598259533253211,
        14.618667488689923,
        14.622108378662782,
        14.610344005170806,
        14.594844709739728,
        14.594183410604254,
        14.624875830833648,
        14.620340947867362,
        14.604139124283309,
        14.64860403436583,
        14.621605593718687,
        14.625672374390078,
        14.598905584281006,
        14.601785163569998,
        14.627978245910452,
        14.613072186285812,
        14.63703164559069,
        14.601560650744005,
        14.62081273643212,
        14.596332255339924,
        14.639394397667312,
        14.623875785958797,
        14.614439086276679,
        14.614967844437055,
        14.601542500258494,
        14.626750349449239,
        14.58387079115211,
        14.597884878253868,
        14.610149934232071,
        14.634707832462187,
        14.632752476999038,
        14.604170794978323,
        14.611064436346807,
        14.660111723358792,
        14.61970360987922,
        14.626300488823306,
        14.62205983807711,
        14.642351323424291,
        14.626052715889898,
        14.623776646003904,
        14.597542754904026,
        14.635268088681821
      ],
      [
        0.4324742301839308,
        0.43111028535007434,
        0.4305702553309701,
        0.4307882283139468,
        0.4315844094034464,
        0.43081141579999305,
        0.43143260531145033,
        0.4320989639514013,
        0.43062424828986934,
        0.4312262488536384,
        0.43132774935475193,
        0.43098072000649,
        0.43052351670572486,
        0.43050400948690465,
        0.43140938456667866,
        0.4312756131013891,
        0.4307976863947215,
        0.4321093268978887,
        0.43131291803954563,
        0.4314328812697915,
        0.4306433057150073,
        0.4307282484894449,
        0.43150090062428054,
        0.4310611967879291,
        0.4317679607777796,
        0.43072162573645817,
        0.4312895300752303,
        0.43056739681378997,
        0.43183765801357493,
        0.4313798849149217,
        0.43110151805223557,
        0.4311171155338957,
        0.43072109032748274,
        0.4314646797316882,
        0.43019980445551975,
        0.43061319659380287,
        0.43097499523827937,
        0.43169941217584873,
        0.43164173245899345,
        0.43079862062727176,
        0.4310019715216383,
        0.4324487844826001,
        0.4312568126963529,
        0.4314514095953795,
        0.43132631748863337,
        0.4319248823794966,
        0.43144410070811434,
        0.431376960452012,
        0.4306031045270046,
        0.43171593879759296
      ],
      [
        10.127611409954795,
        10.09567077095756,
        10.083024435519555,
        10.088128891497238,
        10.106773731174684,
        10.088671892286326,
        10.10321880755872,
        10.118823486159384,
        10.084288833877746,
        10.09838638548408,
        10.100763307763948,
        10.092636630746565,
        10.081929917970802,
        10.081473101082972,
        10.10267502792219,
        10.099542389435001,
        10.088350379299483,
        10.11906616396019,
        10.10041599042889,
        10.103225269906416,
        10.08473511757005,
        10.08672429369095,
        10.104818136122576,
        10.094521222967453,
        10.111072107501569,
        10.086569203135184,
        10.0998682948722,
        10.08295749522765,
        10.112704266070146,
        10.101984209859815,
        10.095465459798119,
        10.09583071909498,
        10.086556665014598,
        10.103969921131963,
        10.074349276975559,
        10.084030027050959,
        10.092502569052705,
        10.109466847454613,
        10.108116113196305,
        10.088372257005885,
        10.093134295283024,
        10.127015526646277,
        10.099102124597772,
        10.103659163231232,
        10.100729776555319,
        10.114746872130532,
        10.103488004894169,
        10.101915725261508,
        10.083793692666797,
        10.109853865203334
      ],
      [
        12.753384000903209,
        12.71316215412445,
        12.697237019804371,
        12.703664901420675,
        12.727143764344664,
        12.704348685315585,
        12.722667160322937,
        12.742317643576008,
        12.698829237074508,
        12.716581842484642,
        12.719575026301479,
        12.709341356341339,
        12.6958587281194,
        12.695283472913333,
        12.721982395649828,
        12.718037562071014,
        12.703943814076302,
        12.74262324013347,
        12.719137660454304,
        12.722675298155085,
        12.69939122815719,
        12.701896135374538,
        12.724681144715985,
        12.711714564327425,
        12.732556575091259,
        12.701700834692813,
        12.718447964585524,
        12.697152723990362,
        12.734611901281495,
        12.721112470090127,
        12.712903612208692,
        12.713363571806685,
        12.701685045830066,
        12.723613014131907,
        12.686312664228135,
        12.698503329739548,
        12.709172536647099,
        12.730535121367234,
        12.728834184000851,
        12.703971363987092,
        12.709968049712575,
        12.75263362370708,
        12.717483150344107,
        12.723221686435876,
        12.71953280150015,
        12.737184091148997,
        12.723006152100174,
        12.721026229579408,
        12.698205721248089,
        12.7310224807025
      ],
      [
        15.683856019586806,
        15.634391998612038,
        15.614807587623474,
        15.622712467596813,
        15.651586302617963,
        15.623553371325231,
        15.646081064719654,
        15.670246835156322,
        15.616765664508396,
        15.638597462814271,
        15.642278420277803,
        15.62969325808121,
        15.613112592135332,
        15.61240515481314,
        15.645238954849868,
        15.640387677583618,
        15.623055468790268,
        15.670622651677407,
        15.64174055652537,
        15.646091072462518,
        15.617456789877512,
        15.62053727456585,
        15.648557822358569,
        15.632611781694683,
        15.658242868781489,
        15.62029709770201,
        15.640892382369984,
        15.614703922321004,
        15.660770467733945,
        15.644169137833055,
        15.63407404894617,
        15.634639698040502,
        15.620277680875072,
        15.647244256775537,
        15.601373034100085,
        15.616364870200247,
        15.629485647005001,
        15.655756925509053,
        15.653665146828915,
        15.623089349118354,
        15.630463953027919,
        15.682933220751327,
        15.639705873154316,
        15.646763009818603,
        15.642226493063474,
        15.663933695276851,
        15.646497950012659,
        15.644063080981548,
        15.615998877242617,
        15.656356270251088
      ],
      [
        -6.749619484671929,
        -6.72833241602347,
        -6.71990417478999,
        -6.7233060761990195,
        -6.735732063737579,
        -6.723667962981387,
        -6.7333628593187305,
        -6.743762709636008,
        -6.720746842172198,
        -6.730142256861464,
        -6.731726373815041,
        -6.726310291451509,
        -6.719174725695398,
        -6.718870276794051,
        -6.733000453467883,
        -6.7309126840111295,
        -6.723453688338261,
        -6.743924444002239,
        -6.731494901678408,
        -6.733367166196845,
        -6.721044271149606,
        -6.722369971885999,
        -6.734428743346074,
        -6.727566291495335,
        -6.738596747564198,
        -6.722266610669349,
        -6.731129886034395,
        -6.719859561950866,
        -6.7396845113843735,
        -6.732540052800299,
        -6.728195584924203,
        -6.728439014610361,
        -6.722258254548683,
        -6.733863444363314,
        -6.714122552967136,
        -6.720574358500564,
        -6.726220945071163,
        -6.737526910457274,
        -6.73662670389331,
        -6.723468268893088,
        -6.726641963562152,
        -6.749222353954037,
        -6.730619266342988,
        -6.733656337524702,
        -6.731704026699817,
        -6.741045820888324,
        -6.7335422678196135,
        -6.732494410747063,
        -6.720416851749993,
        -6.737784841220208
      ],
      [
        -0.5037925251706944,
        -0.5022036554437055,
        -0.5015745703607012,
        -0.5018284887490086,
        -0.502755966165181,
        -0.5018555000281377,
        -0.5025791284220272,
        -0.5033553746777809,
        -0.5016374671698214,
        -0.5023387422123746,
        -0.5024569809193152,
        -0.502052723787983,
        -0.5015201241801154,
        -0.5014974000723129,
        -0.5025520783995556,
        -0.502396247000618,
        -0.5018395065393513,
        -0.5033674465530852,
        -0.5024397038072519,
        -0.502579449888001,
        -0.501659667309537,
        -0.5017586177945422,
        -0.5026586861521917,
        -0.502146471803724,
        -0.5029697865593686,
        -0.5017509028991383,
        -0.5024124589894601,
        -0.5015712404522629,
        -0.5030509774002745,
        -0.5025177140305065,
        -0.5021934423516671,
        -0.5022116119768688,
        -0.5017502791971442,
        -0.5026164921584935,
        -0.5011430293139307,
        -0.5016245929648858,
        -0.5020460549618854,
        -0.5028899337708014,
        -0.5028227422292538,
        -0.5018405948339657,
        -0.5020774798398655,
        -0.5037628832793782,
        -0.5023743462655768,
        -0.5026010336756203,
        -0.5024553129275663,
        -0.5031525857285798,
        -0.5025925194971688,
        -0.5025143073013855,
        -0.5016128366393949,
        -0.5029091857583649
      ],
      [
        14.611851117658649,
        14.565768004598864,
        14.54752220476274,
        14.554886779464852,
        14.581787063297984,
        14.555670206708035,
        14.576658113093588,
        14.599172132561959,
        14.549346445426748,
        14.569686021745088,
        14.573115382634425,
        14.561390426980754,
        14.545943063658225,
        14.545283980278855,
        14.575873562149823,
        14.571353873811931,
        14.555206336234928,
        14.599522261704104,
        14.572614282327056,
        14.576667436798713,
        14.549990331788914,
        14.552860262728093,
        14.578965582240789,
        14.564109467022323,
        14.58798864750118,
        14.552636502157224,
        14.571824081596771,
        14.547425625071886,
        14.590343482914891,
        14.574876868036254,
        14.565471787063151,
        14.565998773560661,
        14.552618412486929,
        14.577741799982867,
        14.535005914402076,
        14.548973045750538,
        14.56119700629823,
        14.585672620566324,
        14.583723816738548,
        14.555237900813765,
        14.562108444272187,
        14.610991392908645,
        14.570718671295415,
        14.57729344666486,
        14.573067004689369,
        14.593290501164136,
        14.57704650392215,
        14.574778060260774,
        14.54863206872293,
        14.58623099958535
      ],
      [
        14.948804873188834,
        14.901659069448245,
        14.88299251588777,
        14.890526919934828,
        14.918047532540092,
        14.891328413249834,
        14.912800307175392,
        14.935833506818186,
        14.884858824099402,
        14.905667437268114,
        14.909175880268362,
        14.897180543551464,
        14.881376959306433,
        14.880702677262768,
        14.911997664246922,
        14.907373750513697,
        14.89085384578175,
        14.93619171004543,
        14.908663224434653,
        14.912809845888008,
        14.885517558677996,
        14.888453671102347,
        14.915160987266823,
        14.899962285487955,
        14.924392127171652,
        14.888224750544282,
        14.907854801433862,
        14.882893709039708,
        14.926801265810184,
        14.910977986062274,
        14.901356021045567,
        14.901895160012877,
        14.888206243720656,
        14.913908984215762,
        14.87018759604352,
        14.884476813712459,
        14.896982662528846,
        14.922022691947365,
        14.920028948107314,
        14.89088613824943,
        14.897915118541231,
        14.947925322923163,
        14.906723900032887,
        14.913450291733122,
        14.9091263867131,
        14.929816243201543,
        14.913197654415242,
        14.910876899749274,
        14.884127973650312,
        14.92259394735734
      ],
      [
        -12.68096215285296,
        -12.640968711372397,
        -12.625134010121519,
        -12.63152539012651,
        -12.654870925092762,
        -12.63220529106037,
        -12.650419742083704,
        -12.669958637360427,
        -12.62671718576653,
        -12.644368980561113,
        -12.64734516717128,
        -12.637169610515878,
        -12.623763545255764,
        -12.623191556715636,
        -12.64973886594113,
        -12.645816433643263,
        -12.631802718938198,
        -12.670262498545735,
        -12.646910284966326,
        -12.65042783370405,
        -12.627275985505424,
        -12.629766668262045,
        -12.652422289788914,
        -12.639529341913464,
        -12.660252998447824,
        -12.629572476622148,
        -12.646224505630553,
        -12.625050192992902,
        -12.662296653185132,
        -12.648873880373566,
        -12.640711637622525,
        -12.641168985276574,
        -12.629556777418635,
        -12.651360224731512,
        -12.614271690003442,
        -12.626393129141272,
        -12.637001749487528,
        -12.658243023827263,
        -12.656551745468049,
        -12.631830112403023,
        -12.637792745122468,
        -12.680216036777118,
        -12.645265170219727,
        -12.650971119243716,
        -12.647303182149308,
        -12.664854236518106,
        -12.65075680884943,
        -12.648788129591468,
        -12.626097210660632,
        -12.658727615625402
      ],
      [
        10.861913502980496,
        10.827657009126781,
        10.814093751602677,
        10.819568305973402,
        10.839564989066346,
        10.820150677014745,
        10.835752315844273,
        10.852488411093308,
        10.815449825117357,
        10.830569519184733,
        10.833118780127139,
        10.824402878691314,
        10.812919876099285,
        10.812429937719791,
        10.835169109485186,
        10.831809339159625,
        10.819805852740606,
        10.852748684239142,
        10.832746280561468,
        10.835759246744251,
        10.815928466592364,
        10.818061867854798,
        10.837467603666868,
        10.826424113201908,
        10.844175019010821,
        10.817895532463986,
        10.83215887435857,
        10.814021957807372,
        10.84592551717642,
        10.834428203684588,
        10.827436811889275,
        10.827828554298028,
        10.817882085267428,
        10.836557888879536,
        10.804789601007315,
        10.815172253511104,
        10.824259096859269,
        10.842453369643165,
        10.841004700447103,
        10.81982931668931,
        10.824936626376697,
        10.861274415174595,
        10.831337152936557,
        10.836224599488634,
        10.833082817739456,
        10.848116222314134,
        10.836041031322635,
        10.834354753612997,
        10.814918783711105,
        10.842868448099528
      ],
      [
        0.177380788711377,
        0.1768213620600239,
        0.17659986689561655,
        0.17668926926213846,
        0.17701582566655696,
        0.17669877968906347,
        0.17695356269760176,
        0.1772268719791025,
        0.1766220122928818,
        0.17686892488871592,
        0.17691055566735087,
        0.17676822038999915,
        0.17658069688817873,
        0.17657269593547822,
        0.17694403862949643,
        0.17688917180422908,
        0.17669314852640536,
        0.17723112237714478,
        0.17690447255255395,
        0.17695367588286182,
        0.17662982876116096,
        0.1766646683314139,
        0.17698157425438274,
        0.1768012282179073,
        0.1770911098922424,
        0.17666195198656315,
        0.1768948798987793,
        0.17659869446499163,
        0.17711969645253556,
        0.17693193924615716,
        0.17681776612274727,
        0.17682416348334284,
        0.17666173238673566,
        0.17696671813106388,
        0.1764479251985627,
        0.17661747940183756,
        0.17676587235668406,
        0.17706299444806808,
        0.17703933691438317,
        0.17669353170508986,
        0.17677693677182083,
        0.17737035206970836,
        0.17688146075362612,
        0.17696127533914593,
        0.17690996838255166,
        0.17715547182536054,
        0.1769582775739678,
        0.17693073976766507,
        0.1766133401060288,
        0.17706977289865572
      ],
      [
        11.230555233589572,
        11.195136110961897,
        11.181112530979414,
        11.186772885872028,
        11.207448235008464,
        11.187375021963835,
        11.203506163733785,
        11.220810264161148,
        11.182514628179252,
        11.198147468497128,
        11.200783248630218,
        11.191771538818804,
        11.179898815396555,
        11.179392249032313,
        11.20290316397444,
        11.199429366636336,
        11.18701849472252,
        11.221079370699265,
        11.20039810682757,
        11.203513329861098,
        11.183009514234154,
        11.185215320854377,
        11.205279666591075,
        11.193861371867559,
        11.212214724440155,
        11.185043340218249,
        11.199790764686206,
        11.181038300579457,
        11.214024632641841,
        11.202137112623157,
        11.194908440465587,
        11.195313478192837,
        11.185029436638217,
        11.204339077056538,
        11.17149260746095,
        11.182227636089465,
        11.191622877185111,
        11.21043464413377,
        11.208936808654126,
        11.187042755012556,
        11.192323401329938,
        11.229894455826859,
        11.198941154917726,
        11.203994476180066,
        11.20074606571755,
        11.216289687969605,
        11.203804677906785,
        11.202061169734671,
        11.18196556379547,
        11.210863809909135
      ],
      [
        -15.350604092797706,
        -15.30219108761115,
        -15.283022807878114,
        -15.290759724279301,
        -15.319020045561063,
        -15.291582760412696,
        -15.313631783432921,
        -15.337284077492967,
        -15.284939279376331,
        -15.306307193746928,
        -15.309909937908476,
        -15.29759218632479,
        -15.281363827800442,
        -15.28067142216755,
        -15.31280756678635,
        -15.308059369878295,
        -15.291095437353786,
        -15.337651908632166,
        -15.309383502731489,
        -15.3136415785304,
        -15.285615719653933,
        -15.288630749937658,
        -15.316055914711688,
        -15.30044869689655,
        -15.325535172432044,
        -15.288395676372557,
        -15.308553350653787,
        -15.28292134526494,
        -15.328009064743737,
        -15.311760481333875,
        -15.30187989376723,
        -15.30243352390077,
        -15.288376672116035,
        -15.314770259883574,
        -15.269873712907875,
        -15.284547001180245,
        -15.297388986586654,
        -15.323102050696889,
        -15.321054718310743,
        -15.291128597789735,
        -15.298346505478731,
        -15.349700901671556,
        -15.307392052488371,
        -15.31429923850353,
        -15.309859114048077,
        -15.33110507975471,
        -15.314039810711225,
        -15.311656677987507,
        -15.284188784872576,
        -15.323688660510099
      ],
      [
        -0.6707475444993911,
        -0.668632129095905,
        -0.6677945674934112,
        -0.6681326335165282,
        -0.6693674735913495,
        -0.6681685962357912,
        -0.6691320324601913,
        -0.6701655239154232,
        -0.6678783080774143,
        -0.6688119831307549,
        -0.6689694057172022,
        -0.6684311792357841,
        -0.6677220780456511,
        -0.6676918232507744,
        -0.6690960181581821,
        -0.6688885447976796,
        -0.6681473025627106,
        -0.6701815963665083,
        -0.6689464030327367,
        -0.6691324604588252,
        -0.6679078652630769,
        -0.6680396075806544,
        -0.6692379553341674,
        -0.6685559950046138,
        -0.6696521532902328,
        -0.6680293359968382,
        -0.6689101293809433,
        -0.6677901340653694,
        -0.6697602504819389,
        -0.6690502655616143,
        -0.668618531422132,
        -0.6686427223953594,
        -0.6680285056022608,
        -0.6691817784036819,
        -0.6672200153057345,
        -0.6678611674075623,
        -0.6684223003848557,
        -0.6695458375765672,
        -0.6694563790013554,
        -0.668148751514221,
        -0.6684641393536541,
        -0.6707080793925837,
        -0.6688593862383169,
        -0.6691611970355376,
        -0.6689671849590251,
        -0.6698955314424658,
        -0.6691498612891649,
        -0.6690457298547936,
        -0.6678455150783564,
        -0.6695714696031253
      ],
      [
        6.970002405074528,
        6.9480202888954326,
        6.939316855790601,
        6.942829833234235,
        6.9556615437070795,
        6.943203536040622,
        6.953214982010532,
        6.963954399527097,
        6.940187037242164,
        6.9498892231401355,
        6.951525063353266,
        6.945932139606137,
        6.938563589335325,
        6.9382491998235265,
        6.952840743187474,
        6.9506848056316075,
        6.942982265081374,
        6.964121414708348,
        6.95128603338236,
        6.95321942951322,
        6.940494177621349,
        6.941863164027479,
        6.954315668390109,
        6.9472291495110845,
        6.9586197627898985,
        6.941756427946982,
        6.950909099553359,
        6.939270786290432,
        6.959743043362972,
        6.952365309903028,
        6.947878990101753,
        6.948130368050071,
        6.9417477989892635,
        6.953731911738586,
        6.933346457295984,
        6.940008921778196,
        6.945839875962637,
        6.957514994258096,
        6.956585394903623,
        6.942997321708261,
        6.946274641196653,
        6.9695923075771615,
        6.950381807535598,
        6.953518042621,
        6.951501986578759,
        6.961148801204304,
        6.953400248407471,
        6.9523181775837095,
        6.939846272249168,
        6.9577813467602
      ],
      [
        13.003045537869232,
        12.962036304143943,
        12.94579941778139,
        12.952353132259283,
        12.976291619781996,
        12.95305030197698,
        12.971727381306515,
        12.991762544410108,
        12.947422804458078,
        12.96552293666985,
        12.968574715356256,
        12.95814071003643,
        12.94439414451879,
        12.943807628058543,
        12.971029211610807,
        12.967007153570291,
        12.952637504937307,
        12.99207412335673,
        12.968128787590958,
        12.97173567844569,
        12.947995797135118,
        12.95054974066987,
        12.973780791662033,
        12.960560376182428,
        12.98181039226002,
        12.950350616762218,
        12.967425590165991,
        12.94571347178399,
        12.983905953723935,
        12.970142256300235,
        12.961772700985456,
        12.962241664799128,
        12.950334518815097,
        12.972691751245453,
        12.934661205913887,
        12.947090517128123,
        12.957968585510756,
        12.979749366353147,
        12.978015131264593,
        12.95266559416794,
        12.958779671620578,
        13.002280471213108,
        12.966441888623262,
        12.972292762878809,
        12.968531663957943,
        12.986528497040815,
        12.97207300922112,
        12.970054327536543,
        12.946787082622688,
        12.980246266284123
      ],
      [
        -8.203393625937611,
        -8.177521618832285,
        -8.167278051684596,
        -8.171412675332384,
        -8.186515047725567,
        -8.171852507493371,
        -8.183635549633525,
        -8.196275383034092,
        -8.168302217898363,
        -8.179721274209612,
        -8.181646587917923,
        -8.175063956757832,
        -8.166391489402587,
        -8.166021466443159,
        -8.183195086603929,
        -8.1806576406497,
        -8.171592081072948,
        -8.196471952732878,
        -8.181365259903128,
        -8.183640784153273,
        -8.168663708939894,
        -8.170274947172732,
        -8.184931010252566,
        -8.176590481738552,
        -8.189996744597071,
        -8.170149323387903,
        -8.180921624967223,
        -8.167223829860546,
        -8.191318797611942,
        -8.182635522037302,
        -8.177355316217731,
        -8.177651177271873,
        -8.170139167475089,
        -8.184243953732942,
        -8.160251148950762,
        -8.168092583643327,
        -8.17495536641008,
        -8.1886964794601,
        -8.18760238092527,
        -8.17160980207645,
        -8.17546706642713,
        -8.202910958787674,
        -8.18030102489765,
        -8.18399223896241,
        -8.181619427544955,
        -8.19297331424551,
        -8.1838536002297,
        -8.182580049320736,
        -8.1679011521298,
        -8.189009964921226
      ]
    ]
  ]
}
