{
  "configs": [
    {
      "config_id": "baseline_1e-6_iter200",
      "convergence_threshold": 1e-06,
      "max_iterations": 200
    },
    {
      "config_id": "threshold_1e-7_iter200",
      "convergence_threshold": 1e-07,
      "max_iterations": 200
    },
    {
      "config_id": "threshold_1e-6_iter500",
      "convergence_threshold": 1e-06,
      "max_iterations": 500
    },
    {
      "config_id": "threshold_1e-8_iter500",
      "convergence_threshold": 1e-08,
      "max_iterations": 500
    }
  ],
  "created_at_utc": "2026-06-05T20:16:28Z",
  "decision": "one_d_lgssm_t4_residual_solver_ladder_residual_resolved",
  "filterflow_checkout": {
    "branch": "bayesfilter-py311-float64-reference",
    "commit": "1e5fbc288c1c11fc18ba01bb4842832e2088b800",
    "path": "/home/chakwong/BayesFilter/.localsource/filterflow",
    "provenance_note": "The comparator is the current local patched filterflow checkout, not pristine upstream and not asserted clean.",
    "status": "current_local_patched_checkout",
    "status_short": ""
  },
  "non_implications": [
    "No production readiness is concluded.",
    "No public API readiness is concluded.",
    "No posterior correctness is concluded.",
    "No HMC readiness is concluded.",
    "No general nonlinear-SSM validity is concluded.",
    "No DSGE/NAWM validation is concluded.",
    "No banking/model-risk claim is concluded.",
    "No monograph claim is concluded.",
    "No gradient correctness beyond this fixed 1D scalar fixture is concluded."
  ],
  "plan_path": "docs/plans/bayesfilter-dpf-1d-lgssm-t4-residual-solver-ladder-plan-2026-06-06.md",
  "question": "Does tightening convergence_threshold or raising max_iterations clear the shared T4 1D LGSSM row-residual veto while preserving BayesFilter/FilterFlow parity?",
  "reference_policy": {
    "canonical_executable_reference": "current local patched .localsource/filterflow",
    "filterflow_source_mutation": "runner does not mutate filterflow source",
    "fixed_fixture": "T4_extension from the 1D LGSSM horizon ladder"
  },
  "reproducibility_digest": "78609a7e29620657c94f944c98f4993f6e1c47cbaab749cd993df2d8a8b66a45",
  "result_path": "docs/plans/bayesfilter-dpf-1d-lgssm-t4-residual-solver-ladder-result-2026-06-06.md",
  "rows": [
    {
      "bayesfilter": {
        "finite_difference_gradient": -1.9368130259955763,
        "finite_gradient": true,
        "finite_scalar": true,
        "gradient_delta_vs_finite_difference": -0.3093589557071512,
        "gradient_tape": -2.2461719817027275,
        "ledger": [
          {
            "column_residual": 0.0,
            "ess": [
              4.0
            ],
            "iterations_used": 0.0,
            "observation": 0.05,
            "observation_log_likelihoods": [
              [
                -14.434500620770569,
                0.3292493792294277,
                0.2392493792294279,
                -8.34075062077057
              ]
            ],
            "per_step_log_normalizer": [
              -0.40779575520549616
            ],
            "post_transport_log_weights": [
              [
                -1.3862943611198906,
                -1.3862943611198906,
                -1.3862943611198906,
                -1.3862943611198906
              ]
            ],
            "post_transport_particles": [
              [
                [
                  -1.5
                ],
                [
                  -0.2
                ],
                [
                  0.4
                ],
                [
                  1.2
                ]
              ]
            ],
            "post_update_log_weights": [
              [
                -15.412999226684963,
                -0.6492492266849667,
                -0.7392492266849665,
                -9.319249226684965
              ]
            ],
            "pre_log_weights": [
              [
                -1.3862943611198906,
                -1.3862943611198906,
                -1.3862943611198906,
                -1.3862943611198906
              ]
            ],
            "pre_particles": [
              [
                [
                  -1.5
                ],
                [
                  -0.2
                ],
                [
                  0.4
                ],
                [
                  1.2
                ]
              ]
            ],
            "predicted_particles": [
              [
                [
                  -1.0499999999999998
                ],
                [
                  -0.11999999999999998
                ],
                [
                  0.23999999999999996
                ],
                [
                  0.8999999999999999
                ]
              ]
            ],
            "resampling_flags": [
              false
            ],
            "row_residual": 0.0,
            "time_index": 0,
            "transition_noise": [
              [
                [
                  0.0
                ],
                [
                  0.1
                ],
                [
                  -0.2
                ],
                [
                  0.3
                ]
              ]
            ],
            "transport_cost_matrix": [
              [
                [
                  0.0,
                  0.8694533762057879,
                  1.857234726688103,
                  3.7504823151125404
                ],
                [
                  0.8694533762057879,
                  0.0,
                  0.18520900321543407,
                  1.0083601286173633
                ],
                [
                  1.857234726688103,
                  0.18520900321543407,
                  0.0,
                  0.32926045016077166
                ],
                [
                  3.7504823151125404,
                  1.0083601286173633,
                  0.32926045016077166,
                  0.0
                ]
              ]
            ],
            "transport_matrix": [
              [
                [
                  1.0,
                  0.0,
                  0.0,
                  0.0
                ],
                [
                  0.0,
                  1.0,
                  0.0,
                  0.0
                ],
                [
                  0.0,
                  0.0,
                  1.0,
                  0.0
                ],
                [
                  0.0,
                  0.0,
                  0.0,
                  1.0
                ]
              ]
            ],
            "unnormalized_log_weights": [
              [
                -15.82079498189046,
                -1.0570449818904628,
                -1.1470449818904627,
                -9.727044981890462
              ]
            ]
          },
          {
            "column_residual": 4.440892098500626e-16,
            "ess": [
              1.9963224490721692
            ],
            "iterations_used": 64.0,
            "observation": -0.1,
            "observation_log_likelihoods": [
              [
                0.6378129985502791,
                0.600184605729579,
                0.3323029649325397,
                0.25644718721865556
              ]
            ],
            "per_step_log_normalizer": [
              0.4702065294632004
            ],
            "post_transport_log_weights": [
              [
                -1.3862943611198906,
                -1.3862943611198906,
                -1.3862943611198906,
                -1.3862943611198906
              ]
            ],
            "post_transport_particles": [
              [
                [
                  -0.10725379754369961
                ],
                [
                  0.007144385536497962
                ],
                [
                  0.09897140639241322
                ],
                [
                  0.20906319838886572
                ]
              ]
            ],
            "post_update_log_weights": [
              [
                -1.218687892032812,
                -1.2563162848535119,
                -1.5241979256505513,
                -1.6000537033644355
              ]
            ],
            "pre_log_weights": [
              [
                -15.412999226684963,
                -0.6492492266849667,
                -0.7392492266849665,
                -9.319249226684965
              ]
            ],
            "pre_particles": [
              [
                [
                  -1.0499999999999998
                ],
                [
                  -0.11999999999999998
                ],
                [
                  0.23999999999999996
                ],
                [
                  0.8999999999999999
                ]
              ]
            ],
            "predicted_particles": [
              [
                [
                  -0.035077658280589716
                ],
                [
                  -0.01499893012445143
                ],
                [
                  0.06927998447468925
                ],
                [
                  0.08634423887220599
                ]
              ]
            ],
            "resampling_flags": [
              true
            ],
            "row_residual": 3.77402173978858e-06,
            "time_index": 1,
            "transition_noise": [
              [
                [
                  0.2
                ],
                [
                  -0.1
                ],
                [
                  0.0
                ],
                [
                  -0.3
                ]
              ]
            ],
            "transport_cost_matrix": [
              [
                [
                  0.0,
                  0.8717541671391313,
                  1.6772876743394944,
                  3.832634085497222
                ],
                [
                  0.8717541671391313,
                  0.0,
                  0.13062705522168047,
                  1.048644971085157
                ],
                [
                  1.6772876743394942,
                  0.13062705522168047,
                  0.0,
                  0.4390520467173149
                ],
                [
                  3.8326340854972223,
                  1.048644971085157,
                  0.4390520467173149,
                  0.0
                ]
              ]
            ],
            "transport_matrix": [
              [
                [
                  8.090882758186871e-07,
                  0.964593499624336,
                  0.03540946488531035,
                  4.2381758203283613e-10
                ],
                [
                  5.077533570965467e-10,
                  0.6468229507766239,
                  0.35317751430840955,
                  5.963653506383564e-07
                ],
                [
                  2.0675347610350378e-11,
                  0.3917581402664101,
                  0.6082337682434202,
                  6.976519634107565e-06
                ],
                [
                  3.238745748745771e-14,
                  0.08657685719091457,
                  0.9130682702262477,
                  0.00035115155278894126
                ]
              ]
            ],
            "unnormalized_log_weights": [
              [
                -0.7484813625696115,
                -0.7861097553903116,
                -1.0539913961873508,
                -1.129847173901235
              ]
            ]
          },
          {
            "column_residual": 2.220446049250313e-16,
            "ess": [
              3.8965506447777565
            ],
            "iterations_used": 201.0,
            "observation": 0.08,
            "observation_log_likelihoods": [
              [
                0.5115751641852266,
                0.5713491261991038,
                0.6901879007448808,
                0.6489513612387837
              ]
            ],
            "per_step_log_normalizer": [
              0.6078879957257153
            ],
            "post_transport_log_weights": [
              [
                -1.3862943611198906,
                -1.3862943611198906,
                -1.3862943611198906,
                -1.3862943611198906
              ]
            ],
            "post_transport_particles": [
              [
                [
                  -0.028058382306343534
                ],
                [
                  -0.025188665209457037
                ],
                [
                  0.04998831598153766
                ],
                [
                  0.07478176271093806
                ]
              ]
            ],
            "post_update_log_weights": [
              [
                -1.4826071926603792,
                -1.4228332306465021,
                -1.303994456100725,
                -1.3452309956068222
              ]
            ],
            "pre_log_weights": [
              [
                -1.218687892032812,
                -1.2563162848535119,
                -1.5241979256505513,
                -1.6000537033644355
              ]
            ],
            "pre_particles": [
              [
                [
                  -0.035077658280589716
                ],
                [
                  -0.01499893012445143
                ],
                [
                  0.06927998447468925
                ],
                [
                  0.08634423887220599
                ]
              ]
            ],
            "predicted_particles": [
              [
                [
                  -0.03964086761444048
                ],
                [
                  -0.017632065646619927
                ],
                [
                  0.08499182118707636
                ],
                [
                  0.022347233897656638
                ]
              ]
            ],
            "resampling_flags": [
              true
            ],
            "row_residual": 1.5915203232741426e-05,
            "time_index": 2,
            "transition_noise": [
              [
                [
                  -0.1
                ],
                [
                  0.0
                ],
                [
                  0.25
                ],
                [
                  -0.15
                ]
              ]
            ],
            "transport_cost_matrix": [
              [
                [
                  0.0,
                  0.07380162460065337,
                  1.9936184471529264,
                  2.6989047068324
                ],
                [
                  0.07380162460065343,
                  0.0,
                  1.3002635551711612,
                  1.880106640627413
                ],
                [
                  1.9936184471529264,
                  1.300263555171161,
                  0.0,
                  0.053305025615446255
                ],
                [
                  2.6989047068323995,
                  1.880106640627413,
                  0.053305025615446255,
                  0.0
                ]
              ]
            ],
            "transport_matrix": [
              [
                [
                  0.6504087797782234,
                  0.3496029147175547,
                  1.4115377633093972e-06,
                  7.541037166678126e-08
                ],
                [
                  0.5075900143752268,
                  0.49239635121278996,
                  2.3697718908893686e-05,
                  2.0910395011173225e-06
                ],
                [
                  0.02263745316675319,
                  0.26176018091308645,
                  0.4148332854900268,
                  0.3007596598430259
                ],
                [
                  0.0018349327899498545,
                  0.03504396938476123,
                  0.45632430586093065,
                  0.5067808767611255
                ]
              ]
            ],
            "unnormalized_log_weights": [
              [
                -0.8747191969346639,
                -0.8149452349207867,
                -0.6961064603750098,
                -0.7373429998811069
              ]
            ]
          },
          {
            "column_residual": 2.220446049250313e-16,
            "ess": [
              3.981254419007036
            ],
            "iterations_used": 201.0,
            "observation": -0.04,
            "observation_log_likelihoods": [
              [
                0.6597012698875502,
                0.6848762727716479,
                0.5414836921705465,
                0.6179489806578297
              ]
            ],
            "per_step_log_normalizer": [
              0.6274633202664334
            ],
            "post_transport_log_weights": [
              [
                -1.3862943611198906,
                -1.3862943611198906,
                -1.3862943611198906,
                -1.3862943611198906
              ]
            ],
            "post_transport_particles": [
              [
                [
                  -0.029089755678785908
                ],
                [
                  -0.016013760910871633
                ],
                [
                  0.08454928522010573
                ],
                [
                  0.023120281552266215
                ]
              ]
            ],
            "post_update_log_weights": [
              [
                -1.3540564114987736,
                -1.328881408614676,
                -1.4722739892157775,
                -1.3958087007284943
              ]
            ],
            "pre_log_weights": [
              [
                -1.4826071926603792,
                -1.4228332306465021,
                -1.303994456100725,
                -1.3452309956068222
              ]
            ],
            "pre_particles": [
              [
                [
                  -0.03964086761444048
                ],
                [
                  -0.017632065646619927
                ],
                [
                  0.08499182118707636
                ],
                [
                  0.022347233897656638
                ]
              ]
            ],
            "predicted_particles": [
              [
                [
                  0.009637171024849865
                ],
                [
                  -0.061209632637610145
                ],
                [
                  0.069184499654074
                ],
                [
                  0.03618419708658635
                ]
              ]
            ],
            "resampling_flags": [
              true
            ],
            "row_residual": 0.0005233019270021178,
            "time_index": 3,
            "transition_noise": [
              [
                [
                  0.15
                ],
                [
                  -0.25
                ],
                [
                  0.05
                ],
                [
                  0.1
                ]
              ]
            ],
            "transport_cost_matrix": [
              [
                [
                  0.0,
                  0.10789768344904377,
                  3.4600569269190173,
                  0.8559255414690725
                ],
                [
                  0.10789768344904377,
                  0.0,
                  2.3459363993476536,
                  0.3560325269656669
                ],
                [
                  3.4600569269190173,
                  2.3459363993476536,
                  0.0,
                  0.8741509218495468
                ],
                [
                  0.8559255414690725,
                  0.3560325269656669,
                  0.8741509218495468,
                  0.0
                ]
              ]
            ],
            "transport_matrix": [
              [
                [
                  0.5841068667126451,
                  0.3807997811220675,
                  4.046025050915969e-06,
                  0.03484503544138811
                ],
                [
                  0.31002414791184824,
                  0.479153703286393,
                  0.00028496717786081826,
                  0.21032200168703258
                ],
                [
                  1.3640728088338037e-07,
                  1.18006245624662e-05,
                  0.9927567551989204,
                  0.007754609696238299
                ],
                [
                  0.014048713287438896,
                  0.10415533322294769,
                  0.09273562389263462,
                  0.7889964783056901
                ]
              ]
            ],
            "unnormalized_log_weights": [
              [
                -0.7265930912323404,
                -0.7014180883482427,
                -0.8448106689493441,
                -0.7683453804620609
              ]
            ]
          }
        ],
        "scalar": 1.297762090249853,
        "status": "executed"
      },
      "bayesfilter_max_iterations_used": 201.0,
      "comparison": {
        "absolute_residuals": {
          "bayesfilter_max_column_residual": 4.440892098500626e-16,
          "bayesfilter_max_row_residual": 0.0005233019270021178,
          "filterflow_max_column_residual": 2.384185791015625e-07,
          "filterflow_max_row_residual": 0.0005233287811279297
        },
        "absolute_residuals_within_tolerance": false,
        "bayesfilter_flags": [
          false,
          true,
          true,
          true
        ],
        "filterflow_flags": [
          false,
          true,
          true,
          true
        ],
        "finite_difference_delta": 0.0003379292046190585,
        "gradient_delta": 3.0408782158986014e-08,
        "gradient_promotion": "not_concluded",
        "ledger_within_tolerance": true,
        "max_deltas": {
          "normalized_log_weights": 1.980896389142117e-06,
          "observation_log_likelihoods": 1.833844299525822e-06,
          "per_step_log_normalizer": 7.200821650066302e-08,
          "post_transport_particles": 4.768371586472142e-08,
          "predicted_particles": 4.7683715642676816e-08,
          "transport_cost_matrix": 1.2390112589244495e-06,
          "transport_matrix": 2.912017110223708e-07
        },
        "scalar_delta": 1.7313559519394062e-07,
        "scalar_within_tolerance": true,
        "status": "compared",
        "trigger_match": true
      },
      "config_id": "baseline_1e-6_iter200",
      "convergence_threshold": 1e-06,
      "filterflow": {
        "backend": "executable_filterflow_tensorflow",
        "command": "CUDA_VISIBLE_DEVICES=-1 PYTHONPATH=.localsource/filterflow /home/chakwong/BayesFilter/.localenv/filterflow-py311/bin/python -c <controlled 1D LGSSM script>",
        "cpu_only_manifest": {
          "cuda_visible_devices": "-1",
          "gpu_devices_visible": [],
          "pre_import_cuda_visible_devices": "-1"
        },
        "finite_difference_gradient": -1.9371509552001953,
        "finite_gradient": true,
        "finite_scalar": true,
        "gradient_delta_vs_finite_difference": -0.30902099609375,
        "gradient_tape": -2.2461719512939453,
        "ledger": [
          {
            "column_residual": 0.0,
            "ess": [
              4.0
            ],
            "iterations_used": null,
            "observation": 0.05000000074505806,
            "observation_log_likelihoods": [
              [
                -14.43449878692627,
                0.3292493522167206,
                0.2392493486404419,
                -8.340751647949219
              ]
            ],
            "per_step_log_normalizer": [
              -0.407795786857605
            ],
            "post_transport_log_weights": [
              [
                -1.3862943649291992,
                -1.3862943649291992,
                -1.3862943649291992,
                -1.3862943649291992
              ]
            ],
            "post_transport_particles": [
              [
                [
                  -1.5
                ],
                [
                  -0.20000000298023224
                ],
                [
                  0.4000000059604645
                ],
                [
                  1.2000000476837158
                ]
              ]
            ],
            "post_update_log_weights": [
              [
                -15.412997245788574,
                -0.6492491960525513,
                -0.7392492294311523,
                -9.319250106811523
              ]
            ],
            "pre_log_weights": [
              [
                -1.3862943649291992,
                -1.3862943649291992,
                -1.3862943649291992,
                -1.3862943649291992
              ]
            ],
            "pre_particles": [
              [
                [
                  -1.5
                ],
                [
                  -0.20000000298023224
                ],
                [
                  0.4000000059604645
                ],
                [
                  1.2000000476837158
                ]
              ]
            ],
            "predicted_particles": [
              [
                [
                  -1.0499999523162842
                ],
                [
                  -0.11999999731779099
                ],
                [
                  0.23999999463558197
                ],
                [
                  0.9000000357627869
                ]
              ]
            ],
            "resampling_flags": [
              false
            ],
            "row_residual": 0.0,
            "time_index": 0,
            "transition_noise": [
              [
                [
                  0.0
                ],
                [
                  0.10000000149011612
                ],
                [
                  -0.20000000298023224
                ],
                [
                  0.30000001192092896
                ]
              ]
            ],
            "transport_cost_matrix": [
              [
                [
                  0.0,
                  0.8694533109664917,
                  1.8572345972061157,
                  3.7504820823669434
                ],
                [
                  0.8694533109664917,
                  0.0,
                  0.1852090060710907,
                  1.0083601474761963
                ],
                [
                  1.8572345972061157,
                  0.1852090060710907,
                  0.0,
                  0.3292604386806488
                ],
                [
                  3.7504820823669434,
                  1.0083601474761963,
                  0.3292604386806488,
                  0.0
                ]
              ]
            ],
            "transport_matrix": [
              [
                [
                  1.0,
                  0.0,
                  0.0,
                  0.0
                ],
                [
                  0.0,
                  1.0,
                  0.0,
                  0.0
                ],
                [
                  0.0,
                  0.0,
                  1.0,
                  0.0
                ],
                [
                  0.0,
                  0.0,
                  0.0,
                  1.0
                ]
              ]
            ],
            "unnormalized_log_weights": [
              [
                -15.820793151855469,
                -1.0570449829101562,
                -1.1470450162887573,
                -9.727046012878418
              ]
            ]
          },
          {
            "column_residual": 1.1920928955078125e-07,
            "ess": [
              1.9963223934173584
            ],
            "iterations_used": null,
            "observation": -0.10000000149011612,
            "observation_log_likelihoods": [
              [
                0.6378129720687866,
                0.6001846194267273,
                0.3323030471801758,
                0.2564471662044525
              ]
            ],
            "per_step_log_normalizer": [
              0.47020649909973145
            ],
            "post_transport_log_weights": [
              [
                -1.3862943649291992,
                -1.3862943649291992,
                -1.3862943649291992,
                -1.3862943649291992
              ]
            ],
            "post_transport_particles": [
              [
                [
                  -0.1072537824511528
                ],
                [
                  0.007144362200051546
                ],
                [
                  0.09897137433290482
                ],
                [
                  0.20906320214271545
                ]
              ]
            ],
            "post_update_log_weights": [
              [
                -1.218687891960144,
                -1.2563161849975586,
                -1.5241978168487549,
                -1.6000536680221558
              ]
            ],
            "pre_log_weights": [
              [
                -15.412997245788574,
                -0.6492491960525513,
                -0.7392492294311523,
                -9.319250106811523
              ]
            ],
            "pre_particles": [
              [
                [
                  -1.0499999523162842
                ],
                [
                  -0.11999999731779099
                ],
                [
                  0.23999999463558197
                ],
                [
                  0.9000000357627869
                ]
              ]
            ],
            "predicted_particles": [
              [
                [
                  -0.035077642649412155
                ],
                [
                  -0.014998948201537132
                ],
                [
                  0.06927996128797531
                ],
                [
                  0.08634424209594727
                ]
              ]
            ],
            "resampling_flags": [
              true
            ],
            "row_residual": 3.6954879760742188e-06,
            "time_index": 1,
            "transition_noise": [
              [
                [
                  0.20000000298023224
                ],
                [
                  -0.10000000149011612
                ],
                [
                  0.0
                ],
                [
                  -0.30000001192092896
                ]
              ]
            ],
            "transport_cost_matrix": [
              [
                [
                  0.0,
                  0.8717540502548218,
                  1.6772875785827637,
                  3.8326337337493896
                ],
                [
                  0.8717541098594666,
                  0.0,
                  0.13062703609466553,
                  1.0486449003219604
                ],
                [
                  1.6772875785827637,
                  0.13062703609466553,
                  0.0,
                  0.4390520453453064
                ],
                [
                  3.8326339721679688,
                  1.04864501953125,
                  0.4390520453453064,
                  0.0
                ]
              ]
            ],
            "transport_matrix": [
              [
                [
                  8.090896130852343e-07,
                  0.9645933508872986,
                  0.03540944680571556,
                  4.2381739784325134e-10
                ],
                [
                  5.077550602194947e-10,
                  0.6468230485916138,
                  0.3531774580478668,
                  5.963651688034588e-07
                ],
                [
                  2.0675419709625942e-11,
                  0.3917582631111145,
                  0.6082336902618408,
                  6.976515123824356e-06
                ],
                [
                  3.238759561647979e-14,
                  0.08657687902450562,
                  0.9130682945251465,
                  0.00035115136415697634
                ]
              ]
            ],
            "unnormalized_log_weights": [
              [
                -0.7484813928604126,
                -0.7861097455024719,
                -1.0539913177490234,
                -1.1298471689224243
              ]
            ]
          },
          {
            "column_residual": 2.384185791015625e-07,
            "ess": [
              3.896550178527832
            ],
            "iterations_used": null,
            "observation": 0.07999999821186066,
            "observation_log_likelihoods": [
              [
                0.5115751624107361,
                0.5713490843772888,
                0.6901878714561462,
                0.6489513516426086
              ]
            ],
            "per_step_log_normalizer": [
              0.6078879237174988
            ],
            "post_transport_log_weights": [
              [
                -1.3862943649291992,
                -1.3862943649291992,
                -1.3862943649291992,
                -1.3862943649291992
              ]
            ],
            "post_transport_particles": [
              [
                [
                  -0.028058374300599098
                ],
                [
                  -0.02518867328763008
                ],
                [
                  0.049988292157649994
                ],
                [
                  0.07478177547454834
                ]
              ]
            ],
            "post_update_log_weights": [
              [
                -1.482607126235962,
                -1.4228332042694092,
                -1.3039944171905518,
                -1.3452309370040894
              ]
            ],
            "pre_log_weights": [
              [
                -1.218687891960144,
                -1.2563161849975586,
                -1.5241978168487549,
                -1.6000536680221558
              ]
            ],
            "pre_particles": [
              [
                [
                  -0.035077642649412155
                ],
                [
                  -0.014998948201537132
                ],
                [
                  0.06927996128797531
                ],
                [
                  0.08634424209594727
                ]
              ]
            ],
            "predicted_particles": [
              [
                [
                  -0.03964086249470711
                ],
                [
                  -0.017632070928812027
                ],
                [
                  0.08499180525541306
                ],
                [
                  0.022347241640090942
                ]
              ]
            ],
            "resampling_flags": [
              true
            ],
            "row_residual": 1.5854835510253906e-05,
            "time_index": 2,
            "transition_noise": [
              [
                [
                  -0.10000000149011612
                ],
                [
                  0.0
                ],
                [
                  0.25
                ],
                [
                  -0.15000000596046448
                ]
              ]
            ],
            "transport_cost_matrix": [
              [
                [
                  0.0,
                  0.07380139827728271,
                  1.993617296218872,
                  2.698904514312744
                ],
                [
                  0.07380139827728271,
                  0.0,
                  1.3002636432647705,
                  1.8801078796386719
                ],
                [
                  1.993617296218872,
                  1.3002636432647705,
                  0.0,
                  0.053305208683013916
                ],
                [
                  2.698904514312744,
                  1.8801077604293823,
                  0.053305208683013916,
                  0.0
                ]
              ]
            ],
            "transport_matrix": [
              [
                [
                  0.6504085659980774,
                  0.34960320591926575,
                  1.4115444173512515e-06,
                  7.541044766412597e-08
                ],
                [
                  0.5075902342796326,
                  0.4923962354660034,
                  2.3697710275882855e-05,
                  2.091029273287859e-06
                ],
                [
                  0.022637564688920975,
                  0.26176023483276367,
                  0.4148333966732025,
                  0.300759494304657
                ],
                [
                  0.0018349355086684227,
                  0.03504384681582451,
                  0.4563242495059967,
                  0.5067811608314514
                ]
              ]
            ],
            "unnormalized_log_weights": [
              [
                -0.8747192025184631,
                -0.8149452805519104,
                -0.696106493473053,
                -0.7373430132865906
              ]
            ]
          },
          {
            "column_residual": 1.1920928955078125e-07,
            "ess": [
              3.9812538623809814
            ],
            "iterations_used": null,
            "observation": -0.03999999910593033,
            "observation_log_likelihoods": [
              [
                0.6597012281417847,
                0.6848762631416321,
                0.5414837002754211,
                0.6179489493370056
              ]
            ],
            "per_step_log_normalizer": [
              0.6274632811546326
            ],
            "post_transport_log_weights": [
              [
                -1.3862943649291992,
                -1.3862943649291992,
                -1.3862943649291992,
                -1.3862943649291992
              ]
            ],
            "post_transport_particles": [
              [
                [
                  -0.029089756309986115
                ],
                [
                  -0.016013769432902336
                ],
                [
                  0.08454926311969757
                ],
                [
                  0.023120293393731117
                ]
              ]
            ],
            "post_update_log_weights": [
              [
                -1.3540563583374023,
                -1.3288813829421997,
                -1.4722739458084106,
                -1.3958086967468262
              ]
            ],
            "pre_log_weights": [
              [
                -1.482607126235962,
                -1.4228332042694092,
                -1.3039944171905518,
                -1.3452309370040894
              ]
            ],
            "pre_particles": [
              [
                [
                  -0.03964086249470711
                ],
                [
                  -0.017632070928812027
                ],
                [
                  0.08499180525541306
                ],
                [
                  0.022347241640090942
                ]
              ]
            ],
            "predicted_particles": [
              [
                [
                  0.009637171402573586
                ],
                [
                  -0.06120964139699936
                ],
                [
                  0.06918448209762573
                ],
                [
                  0.03618420660495758
                ]
              ]
            ],
            "resampling_flags": [
              true
            ],
            "row_residual": 0.0005233287811279297,
            "time_index": 3,
            "transition_noise": [
              [
                [
                  0.15000000596046448
                ],
                [
                  -0.25
                ],
                [
                  0.05000000074505806
                ],
                [
                  0.10000000149011612
                ]
              ]
            ],
            "transport_cost_matrix": [
              [
                [
                  0.0,
                  0.10789759457111359,
                  3.460056781768799,
                  0.8559257388114929
                ],
                [
                  0.10789757966995239,
                  0.0,
                  2.3459365367889404,
                  0.3560328483581543
                ],
                [
                  3.4600565433502197,
                  2.3459365367889404,
                  0.0,
                  0.8741505146026611
                ],
                [
                  0.8559257388114929,
                  0.3560328483581543,
                  0.8741505146026611,
                  0.0
                ]
              ]
            ],
            "transport_matrix": [
              [
                [
                  0.5841068625450134,
                  0.38079991936683655,
                  4.046023150294786e-06,
                  0.0348450243473053
                ],
                [
                  0.31002429127693176,
                  0.47915372252464294,
                  0.00028496666345745325,
                  0.210321843624115
                ],
                [
                  1.364076354093413e-07,
                  1.180064009531634e-05,
                  0.992756724357605,
                  0.0077546341344714165
                ],
                [
                  0.014048700220882893,
                  0.10415516793727875,
                  0.0927356407046318,
                  0.7889966368675232
                ]
              ]
            ],
            "unnormalized_log_weights": [
              [
                -0.7265931367874146,
                -0.7014181017875671,
                -0.8448106646537781,
                -0.7683454155921936
              ]
            ]
          }
        ],
        "scalar": 1.2977619171142578,
        "status": "executed",
        "stderr_excerpt": "t computation orders. To turn them off, set the environment variable `TF_ENABLE_ONEDNN_OPTS=0`.\n2026-06-06 04:15:57.037100: E external/local_xla/xla/stream_executor/cuda/cuda_fft.cc:467] Unable to register cuFFT factory: Attempting to register factory for plugin cuFFT when one has already been registered\nWARNING: All log messages before absl::InitializeLog() is called are written to STDERR\nE0000 00:00:1780690557.048539     265 cuda_dnn.cc:8579] Unable to register cuDNN factory: Attempting to register factory for plugin cuDNN when one has already been registered\nE0000 00:00:1780690557.052727     265 cuda_blas.cc:1407] Unable to register cuBLAS factory: Attempting to register factory for plugin cuBLAS when one has already been registered\nW0000 00:00:1780690557.062678     265 computation_placer.cc:177] computation placer already registered. Please check linkage and avoid linking the same target more than once.\nW0000 00:00:1780690557.062732     265 computation_placer.cc:177] computation placer already registered. Please check linkage and avoid linking the same target more than once.\nW0000 00:00:1780690557.062737     265 computation_placer.cc:177] computation placer already registered. Please check linkage and avoid linking the same target more than once.\nW0000 00:00:1780690557.062738     265 computation_placer.cc:177] computation placer already registered. Please check linkage and avoid linking the same target more than once.\n2026-06-06 04:15:57.065719: I tensorflow/core/platform/cpu_feature_guard.cc:210] This TensorFlow binary is optimized to use available CPU instructions in performance-critical operations.\nTo enable the following instructions: SSE4.1 SSE4.2 AVX AVX2 AVX512F AVX512_VNNI AVX512_BF16 AVX_VNNI FMA, in other operations, rebuild TensorFlow with the appropriate compiler flags.\n2026-06-06 04:15:59.606507: E external/local_xla/xla/stream_executor/cuda/cuda_platform.cc:51] failed call to cuInit: INTERNAL: CUDA error: Failed call to cuInit: UNKNOWN ERROR (100)\n"
      },
      "filterflow_contract_match": true,
      "gradient_relative_delta": 1.3538047317111462e-08,
      "gradient_within_tolerance": true,
      "horizon": 4,
      "implementation_agreement": true,
      "max_iterations": 200,
      "max_row_residual": 0.0005233287811279297,
      "scenario_id": "T4_extension"
    },
    {
      "bayesfilter": {
        "finite_difference_gradient": -1.9368126776886374,
        "finite_gradient": true,
        "finite_scalar": true,
        "gradient_delta_vs_finite_difference": -0.3093654603292415,
        "gradient_tape": -2.246178138017879,
        "ledger": [
          {
            "column_residual": 0.0,
            "ess": [
              4.0
            ],
            "iterations_used": 0.0,
            "observation": 0.05,
            "observation_log_likelihoods": [
              [
                -14.434500620770569,
                0.3292493792294277,
                0.2392493792294279,
                -8.34075062077057
              ]
            ],
            "per_step_log_normalizer": [
              -0.40779575520549616
            ],
            "post_transport_log_weights": [
              [
                -1.3862943611198906,
                -1.3862943611198906,
                -1.3862943611198906,
                -1.3862943611198906
              ]
            ],
            "post_transport_particles": [
              [
                [
                  -1.5
                ],
                [
                  -0.2
                ],
                [
                  0.4
                ],
                [
                  1.2
                ]
              ]
            ],
            "post_update_log_weights": [
              [
                -15.412999226684963,
                -0.6492492266849667,
                -0.7392492266849665,
                -9.319249226684965
              ]
            ],
            "pre_log_weights": [
              [
                -1.3862943611198906,
                -1.3862943611198906,
                -1.3862943611198906,
                -1.3862943611198906
              ]
            ],
            "pre_particles": [
              [
                [
                  -1.5
                ],
                [
                  -0.2
                ],
                [
                  0.4
                ],
                [
                  1.2
                ]
              ]
            ],
            "predicted_particles": [
              [
                [
                  -1.0499999999999998
                ],
                [
                  -0.11999999999999998
                ],
                [
                  0.23999999999999996
                ],
                [
                  0.8999999999999999
                ]
              ]
            ],
            "resampling_flags": [
              false
            ],
            "row_residual": 0.0,
            "time_index": 0,
            "transition_noise": [
              [
                [
                  0.0
                ],
                [
                  0.1
                ],
                [
                  -0.2
                ],
                [
                  0.3
                ]
              ]
            ],
            "transport_cost_matrix": [
              [
                [
                  0.0,
                  0.8694533762057879,
                  1.857234726688103,
                  3.7504823151125404
                ],
                [
                  0.8694533762057879,
                  0.0,
                  0.18520900321543407,
                  1.0083601286173633
                ],
                [
                  1.857234726688103,
                  0.18520900321543407,
                  0.0,
                  0.32926045016077166
                ],
                [
                  3.7504823151125404,
                  1.0083601286173633,
                  0.32926045016077166,
                  0.0
                ]
              ]
            ],
            "transport_matrix": [
              [
                [
                  1.0,
                  0.0,
                  0.0,
                  0.0
                ],
                [
                  0.0,
                  1.0,
                  0.0,
                  0.0
                ],
                [
                  0.0,
                  0.0,
                  1.0,
                  0.0
                ],
                [
                  0.0,
                  0.0,
                  0.0,
                  1.0
                ]
              ]
            ],
            "unnormalized_log_weights": [
              [
                -15.82079498189046,
                -1.0570449818904628,
                -1.1470449818904627,
                -9.727044981890462
              ]
            ]
          },
          {
            "column_residual": 4.440892098500626e-16,
            "ess": [
              1.9963224490721692
            ],
            "iterations_used": 75.0,
            "observation": -0.1,
            "observation_log_likelihoods": [
              [
                0.6378126688531031,
                0.6001852793029487,
                0.3323040553122277,
                0.25644545658797235
              ]
            ],
            "per_step_log_normalizer": [
              0.47020651185670925
            ],
            "post_transport_log_weights": [
              [
                -1.3862943611198906,
                -1.3862943611198906,
                -1.3862943611198906,
                -1.3862943611198906
              ]
            ],
            "post_transport_particles": [
              [
                [
                  -0.10725350735377952
                ],
                [
                  0.007143932718919733
                ],
                [
                  0.09897103831902077
                ],
                [
                  0.20906372908991622
                ]
              ]
            ],
            "post_update_log_weights": [
              [
                -1.2186882041234968,
                -1.256315593673651,
                -1.524196817664372,
                -1.6000554163886274
              ]
            ],
            "pre_log_weights": [
              [
                -15.412999226684963,
                -0.6492492266849667,
                -0.7392492266849665,
                -9.319249226684965
              ]
            ],
            "pre_particles": [
              [
                [
                  -1.0499999999999998
                ],
                [
                  -0.11999999999999998
                ],
                [
                  0.23999999999999996
                ],
                [
                  0.8999999999999999
                ]
              ]
            ],
            "predicted_particles": [
              [
                [
                  -0.03507745514764565
                ],
                [
                  -0.01499924709675619
                ],
                [
                  0.06927972682331453
                ],
                [
                  0.08634461036294133
                ]
              ]
            ],
            "resampling_flags": [
              true
            ],
            "row_residual": 4.4644002805682703e-07,
            "time_index": 1,
            "transition_noise": [
              [
                [
                  0.2
                ],
                [
                  -0.1
                ],
                [
                  0.0
                ],
                [
                  -0.3
                ]
              ]
            ],
            "transport_cost_matrix": [
              [
                [
                  0.0,
                  0.8717541671391313,
                  1.6772876743394944,
                  3.832634085497222
                ],
                [
                  0.8717541671391313,
                  0.0,
                  0.13062705522168047,
                  1.048644971085157
                ],
                [
                  1.6772876743394942,
                  0.13062705522168047,
                  0.0,
                  0.4390520467173149
                ],
                [
                  3.8326340854972223,
                  1.048644971085157,
                  0.4390520467173149,
                  0.0
                ]
              ]
            ],
            "transport_matrix": [
              [
                [
                  8.090882735769798e-07,
                  0.9645904751534162,
                  0.03540916177452555,
                  4.2381279996471343e-10
                ],
                [
                  5.077554451206767e-10,
                  0.6468235843723746,
                  0.35317594438241573,
                  5.963610757051933e-07
                ],
                [
                  2.0675500925431866e-11,
                  0.3917598180163849,
                  0.6082330735803962,
                  6.976492667953828e-06
                ],
                [
                  3.2387825721700356e-14,
                  0.08657757031610942,
                  0.9130708379260503,
                  0.0003511515840348102
                ]
              ]
            ],
            "unnormalized_log_weights": [
              [
                -0.7484816922667875,
                -0.7861090818169418,
                -1.053990305807663,
                -1.1298489045319182
              ]
            ]
          },
          {
            "column_residual": 2.220446049250313e-16,
            "ess": [
              3.8965502959282396
            ],
            "iterations_used": 201.0,
            "observation": 0.08,
            "observation_log_likelihoods": [
              [
                0.511575413243236,
                0.5713489457887668,
                0.6901879408023421,
                0.6489517128800104
              ]
            ],
            "per_step_log_normalizer": [
              0.607888111257525
            ],
            "post_transport_log_weights": [
              [
                -1.3862943611198906,
                -1.3862943611198906,
                -1.3862943611198906,
                -1.3862943611198906
              ]
            ],
            "post_transport_particles": [
              [
                [
                  -0.028058263351245
                ],
                [
                  -0.025188770801386727
                ],
                [
                  0.04998785741715725
                ],
                [
                  0.07478211124281706
                ]
              ]
            ],
            "post_update_log_weights": [
              [
                -1.4826070591341796,
                -1.4228335265886487,
                -1.3039945315750734,
                -1.3452307594974051
              ]
            ],
            "pre_log_weights": [
              [
                -1.2186882041234968,
                -1.256315593673651,
                -1.524196817664372,
                -1.6000554163886274
              ]
            ],
            "pre_particles": [
              [
                [
                  -0.03507745514764565
                ],
                [
                  -0.01499924709675619
                ],
                [
                  0.06927972682331453
                ],
                [
                  0.08634461036294133
                ]
              ]
            ],
            "predicted_particles": [
              [
                [
                  -0.039640784345871496
                ],
                [
                  -0.01763213956097071
                ],
                [
                  0.08499150019201007
                ],
                [
                  0.02234747786997194
                ]
              ]
            ],
            "resampling_flags": [
              true
            ],
            "row_residual": 1.5915332495008983e-05,
            "time_index": 2,
            "transition_noise": [
              [
                [
                  -0.1
                ],
                [
                  0.0
                ],
                [
                  0.25
                ],
                [
                  -0.15
                ]
              ]
            ],
            "transport_cost_matrix": [
              [
                [
                  0.0,
                  0.07379764108563586,
                  1.9935965153554607,
                  2.69890633408227
                ],
                [
                  0.0737976410856358,
                  0.0,
                  1.3002625637928038,
                  1.880128105078752
                ],
                [
                  1.9935965153554607,
                  1.3002625637928038,
                  0.0,
                  0.05330884060507812
                ],
                [
                  2.6989063340822694,
                  1.880128105078752,
                  0.05330884060507812,
                  0.0
                ]
              ]
            ],
            "transport_matrix": [
              [
                [
                  0.6504039168123261,
                  0.3496077775439219,
                  1.4116642239342082e-06,
                  7.540956698673056e-08
                ],
                [
                  0.5075926342918817,
                  0.49239373149093535,
                  2.3697778845443797e-05,
                  2.090844384192874e-06
                ],
                [
                  0.022639332052139995,
                  0.2617614075448025,
                  0.41483519564680615,
                  0.30075464425266135
                ],
                [
                  0.0018349279156224811,
                  0.03504128676679158,
                  0.4563233607766807,
                  0.5067845092084102
                ]
              ]
            ],
            "unnormalized_log_weights": [
              [
                -0.8747189478766546,
                -0.8149454153311237,
                -0.6961064203175484,
                -0.7373426482398802
              ]
            ]
          },
          {
            "column_residual": 2.220446049250313e-16,
            "ess": [
              3.981254414281331
            ],
            "iterations_used": 201.0,
            "observation": -0.04,
            "observation_log_likelihoods": [
              [
                0.659701256642943,
                0.6848762253053545,
                0.5414843855801732,
                0.6179484682656708
              ]
            ],
            "per_step_log_normalizer": [
              0.6274633364644376
            ],
            "post_transport_log_weights": [
              [
                -1.3862943611198906,
                -1.3862943611198906,
                -1.3862943611198906,
                -1.3862943611198906
              ]
            ],
            "post_transport_particles": [
              [
                [
                  -0.029089740431450087
                ],
                [
                  -0.016013888793986873
                ],
                [
                  0.08454892231645676
                ],
                [
                  0.02312066587738029
                ]
              ]
            ],
            "post_update_log_weights": [
              [
                -1.354056440941385,
                -1.3288814722789737,
                -1.472273312004155,
                -1.3958092293186573
              ]
            ],
            "pre_log_weights": [
              [
                -1.4826070591341796,
                -1.4228335265886487,
                -1.3039945315750734,
                -1.3452307594974051
              ]
            ],
            "pre_particles": [
              [
                [
                  -0.039640784345871496
                ],
                [
                  -0.01763213956097071
                ],
                [
                  0.08499150019201007
                ],
                [
                  0.02234747786997194
                ]
              ]
            ],
            "predicted_particles": [
              [
                [
                  0.009637181697984939
                ],
                [
                  -0.06120972215579081
                ],
                [
                  0.06918424562151973
                ],
                [
                  0.0361844661141662
                ]
              ]
            ],
            "resampling_flags": [
              true
            ],
            "row_residual": 0.000523258831560458,
            "time_index": 3,
            "transition_noise": [
              [
                [
                  0.15
                ],
                [
                  -0.25
                ],
                [
                  0.05
                ],
                [
                  0.1
                ]
              ]
            ],
            "transport_cost_matrix": [
              [
                [
                  0.0,
                  0.10789669459451404,
                  3.460052192236448,
                  0.8559343608753022
                ],
                [
                  0.10789669459451401,
                  0.0,
                  2.3459371116555916,
                  0.35604001134918073
                ],
                [
                  3.460052192236448,
                  2.3459371116555916,
                  0.0,
                  0.874139629288965
                ],
                [
                  0.8559343608753022,
                  0.35604001134918073,
                  0.874139629288965,
                  0.0
                ]
              ]
            ],
            "transport_matrix": [
              [
                [
                  0.5841059609014523,
                  0.3808015392688635,
                  4.04597399688089e-06,
                  0.034844201047406355
                ],
                [
                  0.31002578547262705,
                  0.47915539898109727,
                  0.0002849581932762603,
                  0.2103186936274886
                ],
                [
                  1.3641385848298907e-07,
                  1.1800962578408209e-05,
                  0.9927560344967663,
                  0.0077552869583574005
                ],
                [
                  0.014048102797089117,
                  0.1041515937195484,
                  0.09273627168178747,
                  0.789000189503807
                ]
              ]
            ],
            "unnormalized_log_weights": [
              [
                -0.7265931044769476,
                -0.701418135814536,
                -0.8448099755397174,
                -0.7683458928542197
              ]
            ]
          }
        ],
        "scalar": 1.2977622043731758,
        "status": "executed"
      },
      "bayesfilter_max_iterations_used": 201.0,
      "comparison": {
        "absolute_residuals": {
          "bayesfilter_max_column_residual": 4.440892098500626e-16,
          "bayesfilter_max_row_residual": 0.000523258831560458,
          "filterflow_max_column_residual": 1.1920928955078125e-07,
          "filterflow_max_row_residual": 0.0005230903625488281
        },
        "absolute_residuals_within_tolerance": false,
        "bayesfilter_flags": [
          false,
          true,
          true,
          true
        ],
        "filterflow_flags": [
          false,
          true,
          true,
          true
        ],
        "finite_difference_delta": 0.0003382775115579051,
        "gradient_delta": 2.5057770214331754e-07,
        "gradient_promotion": "not_concluded",
        "ledger_within_tolerance": true,
        "max_deltas": {
          "normalized_log_weights": 1.980896389142117e-06,
          "observation_log_likelihoods": 1.833844299525822e-06,
          "per_step_log_normalizer": 1.1491444984468302e-07,
          "post_transport_particles": 4.768371586472142e-08,
          "predicted_particles": 4.7683715642676816e-08,
          "transport_cost_matrix": 1.4706506181738632e-06,
          "transport_matrix": 2.5635157063774727e-07
        },
        "scalar_delta": 1.680496284350852e-07,
        "scalar_within_tolerance": true,
        "status": "compared",
        "trigger_match": true
      },
      "config_id": "threshold_1e-7_iter200",
      "convergence_threshold": 1e-07,
      "filterflow": {
        "backend": "executable_filterflow_tensorflow",
        "command": "CUDA_VISIBLE_DEVICES=-1 PYTHONPATH=.localsource/filterflow /home/chakwong/BayesFilter/.localenv/filterflow-py311/bin/python -c <controlled 1D LGSSM script>",
        "cpu_only_manifest": {
          "cuda_visible_devices": "-1",
          "gpu_devices_visible": [],
          "pre_import_cuda_visible_devices": "-1"
        },
        "finite_difference_gradient": -1.9371509552001953,
        "finite_gradient": true,
        "finite_scalar": true,
        "gradient_delta_vs_finite_difference": -0.30902743339538574,
        "gradient_tape": -2.246178388595581,
        "ledger": [
          {
            "column_residual": 0.0,
            "ess": [
              4.0
            ],
            "iterations_used": null,
            "observation": 0.05000000074505806,
            "observation_log_likelihoods": [
              [
                -14.43449878692627,
                0.3292493522167206,
                0.2392493486404419,
                -8.340751647949219
              ]
            ],
            "per_step_log_normalizer": [
              -0.407795786857605
            ],
            "post_transport_log_weights": [
              [
                -1.3862943649291992,
                -1.3862943649291992,
                -1.3862943649291992,
                -1.3862943649291992
              ]
            ],
            "post_transport_particles": [
              [
                [
                  -1.5
                ],
                [
                  -0.20000000298023224
                ],
                [
                  0.4000000059604645
                ],
                [
                  1.2000000476837158
                ]
              ]
            ],
            "post_update_log_weights": [
              [
                -15.412997245788574,
                -0.6492491960525513,
                -0.7392492294311523,
                -9.319250106811523
              ]
            ],
            "pre_log_weights": [
              [
                -1.3862943649291992,
                -1.3862943649291992,
                -1.3862943649291992,
                -1.3862943649291992
              ]
            ],
            "pre_particles": [
              [
                [
                  -1.5
                ],
                [
                  -0.20000000298023224
                ],
                [
                  0.4000000059604645
                ],
                [
                  1.2000000476837158
                ]
              ]
            ],
            "predicted_particles": [
              [
                [
                  -1.0499999523162842
                ],
                [
                  -0.11999999731779099
                ],
                [
                  0.23999999463558197
                ],
                [
                  0.9000000357627869
                ]
              ]
            ],
            "resampling_flags": [
              false
            ],
            "row_residual": 0.0,
            "time_index": 0,
            "transition_noise": [
              [
                [
                  0.0
                ],
                [
                  0.10000000149011612
                ],
                [
                  -0.20000000298023224
                ],
                [
                  0.30000001192092896
                ]
              ]
            ],
            "transport_cost_matrix": [
              [
                [
                  0.0,
                  0.8694533109664917,
                  1.8572345972061157,
                  3.7504820823669434
                ],
                [
                  0.8694533109664917,
                  0.0,
                  0.1852090060710907,
                  1.0083601474761963
                ],
                [
                  1.8572345972061157,
                  0.1852090060710907,
                  0.0,
                  0.3292604386806488
                ],
                [
                  3.7504820823669434,
                  1.0083601474761963,
                  0.3292604386806488,
                  0.0
                ]
              ]
            ],
            "transport_matrix": [
              [
                [
                  1.0,
                  0.0,
                  0.0,
                  0.0
                ],
                [
                  0.0,
                  1.0,
                  0.0,
                  0.0
                ],
                [
                  0.0,
                  0.0,
                  1.0,
                  0.0
                ],
                [
                  0.0,
                  0.0,
                  0.0,
                  1.0
                ]
              ]
            ],
            "unnormalized_log_weights": [
              [
                -15.820793151855469,
                -1.0570449829101562,
                -1.1470450162887573,
                -9.727046012878418
              ]
            ]
          },
          {
            "column_residual": 1.1920928955078125e-07,
            "ess": [
              1.9963223934173584
            ],
            "iterations_used": null,
            "observation": -0.10000000149011612,
            "observation_log_likelihoods": [
              [
                0.637812614440918,
                0.6001852750778198,
                0.33230409026145935,
                0.25644537806510925
              ]
            ],
            "per_step_log_normalizer": [
              0.47020649909973145
            ],
            "post_transport_log_weights": [
              [
                -1.3862943649291992,
                -1.3862943649291992,
                -1.3862943649291992,
                -1.3862943649291992
              ]
            ],
            "post_transport_particles": [
              [
                [
                  -0.10725349932909012
                ],
                [
                  0.007143908645957708
                ],
                [
                  0.09897101670503616
                ],
                [
                  0.20906376838684082
                ]
              ]
            ],
            "post_update_log_weights": [
              [
                -1.2186882495880127,
                -1.2563155889511108,
                -1.524196743965149,
                -1.600055456161499
              ]
            ],
            "pre_log_weights": [
              [
                -15.412997245788574,
                -0.6492491960525513,
                -0.7392492294311523,
                -9.319250106811523
              ]
            ],
            "pre_particles": [
              [
                [
                  -1.0499999523162842
                ],
                [
                  -0.11999999731779099
                ],
                [
                  0.23999999463558197
                ],
                [
                  0.9000000357627869
                ]
              ]
            ],
            "predicted_particles": [
              [
                [
                  -0.035077448934316635
                ],
                [
                  -0.014999264851212502
                ],
                [
                  0.06927970796823502
                ],
                [
                  0.0863446295261383
                ]
              ]
            ],
            "resampling_flags": [
              true
            ],
            "row_residual": 3.5762786865234375e-07,
            "time_index": 1,
            "transition_noise": [
              [
                [
                  0.20000000298023224
                ],
                [
                  -0.10000000149011612
                ],
                [
                  0.0
                ],
                [
                  -0.30000001192092896
                ]
              ]
            ],
            "transport_cost_matrix": [
              [
                [
                  0.0,
                  0.8717540502548218,
                  1.6772875785827637,
                  3.8326337337493896
                ],
                [
                  0.8717541098594666,
                  0.0,
                  0.13062703609466553,
                  1.0486449003219604
                ],
                [
                  1.6772875785827637,
                  0.13062703609466553,
                  0.0,
                  0.4390520453453064
                ],
                [
                  3.8326339721679688,
                  1.04864501953125,
                  0.4390520453453064,
                  0.0
                ]
              ]
            ],
            "transport_matrix": [
              [
                [
                  8.090903520496795e-07,
                  0.9645903706550598,
                  0.03540914133191109,
                  4.238125406175186e-10
                ],
                [
                  5.077570031097878e-10,
                  0.6468236446380615,
                  0.3531758785247803,
                  5.963606213299499e-07
                ],
                [
                  2.0675577569462256e-11,
                  0.3917599618434906,
                  0.6082330346107483,
                  6.976488748478005e-06
                ],
                [
                  3.238796831097658e-14,
                  0.08657760173082352,
                  0.9130710363388062,
                  0.00035115136415697634
                ]
              ]
            ],
            "unnormalized_log_weights": [
              [
                -0.7484817504882812,
                -0.7861090898513794,
                -1.0539902448654175,
                -1.1298489570617676
              ]
            ]
          },
          {
            "column_residual": 1.1920928955078125e-07,
            "ess": [
              3.8965506553649902
            ],
            "iterations_used": null,
            "observation": 0.07999999821186066,
            "observation_log_likelihoods": [
              [
                0.5115754008293152,
                0.5713489055633545,
                0.690187931060791,
                0.6489517092704773
              ]
            ],
            "per_step_log_normalizer": [
              0.6078881025314331
            ],
            "post_transport_log_weights": [
              [
                -1.3862943649291992,
                -1.3862943649291992,
                -1.3862943649291992,
                -1.3862943649291992
              ]
            ],
            "post_transport_particles": [
              [
                [
                  -0.028058260679244995
                ],
                [
                  -0.025188779458403587
                ],
                [
                  0.04998783767223358
                ],
                [
                  0.07478213310241699
                ]
              ]
            ],
            "post_update_log_weights": [
              [
                -1.482607126235962,
                -1.4228335618972778,
                -1.3039945363998413,
                -1.3452308177947998
              ]
            ],
            "pre_log_weights": [
              [
                -1.2186882495880127,
                -1.2563155889511108,
                -1.524196743965149,
                -1.600055456161499
              ]
            ],
            "pre_particles": [
              [
                [
                  -0.035077448934316635
                ],
                [
                  -0.014999264851212502
                ],
                [
                  0.06927970796823502
                ],
                [
                  0.0863446295261383
                ]
              ]
            ],
            "predicted_particles": [
              [
                [
                  -0.03964078426361084
                ],
                [
                  -0.017632145434617996
                ],
                [
                  0.08499148488044739
                ],
                [
                  0.02234749123454094
                ]
              ]
            ],
            "resampling_flags": [
              true
            ],
            "row_residual": 1.5974044799804688e-05,
            "time_index": 2,
            "transition_noise": [
              [
                [
                  -0.10000000149011612
                ],
                [
                  0.0
                ],
                [
                  0.25
                ],
                [
                  -0.15000000596046448
                ]
              ]
            ],
            "transport_cost_matrix": [
              [
                [
                  0.0,
                  0.07379746437072754,
                  1.9935956001281738,
                  2.698906898498535
                ],
                [
                  0.07379746437072754,
                  0.0,
                  1.300262451171875,
                  1.8801294565200806
                ],
                [
                  1.9935954809188843,
                  1.300262451171875,
                  0.0,
                  0.053309082984924316
                ],
                [
                  2.698906898498535,
                  1.8801295757293701,
                  0.053309082984924316,
                  0.0
                ]
              ]
            ],
            "transport_matrix": [
              [
                [
                  0.6504036784172058,
                  0.34960803389549255,
                  1.4116697002464207e-06,
                  7.540943869344119e-08
                ],
                [
                  0.5075927376747131,
                  0.4923936426639557,
                  2.3697801225353032e-05,
                  2.090833959300653e-06
                ],
                [
                  0.022639410570263863,
                  0.2617614269256592,
                  0.4148353934288025,
                  0.3007543981075287
                ],
                [
                  0.0018349240999668837,
                  0.035041097551584244,
                  0.4563232958316803,
                  0.5067847371101379
                ]
              ]
            ],
            "unnormalized_log_weights": [
              [
                -0.874718964099884,
                -0.8149454593658447,
                -0.6961064338684082,
                -0.7373426556587219
              ]
            ]
          },
          {
            "column_residual": 5.960464477539063e-08,
            "ess": [
              3.981254816055298
            ],
            "iterations_used": null,
            "observation": -0.03999999910593033,
            "observation_log_likelihoods": [
              [
                0.6597012281417847,
                0.6848762035369873,
                0.5414844155311584,
                0.6179484128952026
              ]
            ],
            "per_step_log_normalizer": [
              0.6274632215499878
            ],
            "post_transport_log_weights": [
              [
                -1.3862943649291992,
                -1.3862943649291992,
                -1.3862943649291992,
                -1.3862943649291992
              ]
            ],
            "post_transport_particles": [
              [
                [
                  -0.02908974513411522
                ],
                [
                  -0.016013899818062782
                ],
                [
                  0.08454889804124832
                ],
                [
                  0.023120691999793053
                ]
              ]
            ],
            "post_update_log_weights": [
              [
                -1.3540563583374023,
                -1.3288813829421997,
                -1.4722731113433838,
                -1.3958091735839844
              ]
            ],
            "pre_log_weights": [
              [
                -1.482607126235962,
                -1.4228335618972778,
                -1.3039945363998413,
                -1.3452308177947998
              ]
            ],
            "pre_particles": [
              [
                [
                  -0.03964078426361084
                ],
                [
                  -0.017632145434617996
                ],
                [
                  0.08499148488044739
                ],
                [
                  0.02234749123454094
                ]
              ]
            ],
            "predicted_particles": [
              [
                [
                  0.009637180715799332
                ],
                [
                  -0.06120973080396652
                ],
                [
                  0.06918422877788544
                ],
                [
                  0.036184486001729965
                ]
              ]
            ],
            "resampling_flags": [
              true
            ],
            "row_residual": 0.0005230903625488281,
            "time_index": 3,
            "transition_noise": [
              [
                [
                  0.15000000596046448
                ],
                [
                  -0.25
                ],
                [
                  0.05000000074505806
                ],
                [
                  0.10000000149011612
                ]
              ]
            ],
            "transport_cost_matrix": [
              [
                [
                  0.0,
                  0.10789667069911957,
                  3.460052013397217,
                  0.8559349775314331
                ],
                [
                  0.10789668560028076,
                  0.0,
                  2.3459370136260986,
                  0.35604044795036316
                ],
                [
                  3.460052013397217,
                  2.3459370136260986,
                  0.0,
                  0.8741389513015747
                ],
                [
                  0.8559349775314331,
                  0.35604044795036316,
                  0.8741388916969299,
                  0.0
                ]
              ]
            ],
            "transport_matrix": [
              [
                [
                  0.5841059684753418,
                  0.38080161809921265,
                  4.045969035360031e-06,
                  0.034844137728214264
                ],
                [
                  0.3100258708000183,
                  0.4791555404663086,
                  0.0002849579614121467,
                  0.21031850576400757
                ],
                [
                  1.3641414398080087e-07,
                  1.1800978427345399e-05,
                  0.9927558898925781,
                  0.007755322381854057
                ],
                [
                  0.014048057608306408,
                  0.10415136814117432,
                  0.0927363708615303,
                  0.7890003323554993
                ]
              ]
            ],
            "unnormalized_log_weights": [
              [
                -0.7265931367874146,
                -0.7014181613922119,
                -0.8448099493980408,
                -0.7683459520339966
              ]
            ]
          }
        ],
        "scalar": 1.2977620363235474,
        "status": "executed",
        "stderr_excerpt": "t computation orders. To turn them off, set the environment variable `TF_ENABLE_ONEDNN_OPTS=0`.\n2026-06-06 04:16:05.384720: E external/local_xla/xla/stream_executor/cuda/cuda_fft.cc:467] Unable to register cuFFT factory: Attempting to register factory for plugin cuFFT when one has already been registered\nWARNING: All log messages before absl::InitializeLog() is called are written to STDERR\nE0000 00:00:1780690565.396675     524 cuda_dnn.cc:8579] Unable to register cuDNN factory: Attempting to register factory for plugin cuDNN when one has already been registered\nE0000 00:00:1780690565.400613     524 cuda_blas.cc:1407] Unable to register cuBLAS factory: Attempting to register factory for plugin cuBLAS when one has already been registered\nW0000 00:00:1780690565.411023     524 computation_placer.cc:177] computation placer already registered. Please check linkage and avoid linking the same target more than once.\nW0000 00:00:1780690565.411071     524 computation_placer.cc:177] computation placer already registered. Please check linkage and avoid linking the same target more than once.\nW0000 00:00:1780690565.411075     524 computation_placer.cc:177] computation placer already registered. Please check linkage and avoid linking the same target more than once.\nW0000 00:00:1780690565.411077     524 computation_placer.cc:177] computation placer already registered. Please check linkage and avoid linking the same target more than once.\n2026-06-06 04:16:05.414233: I tensorflow/core/platform/cpu_feature_guard.cc:210] This TensorFlow binary is optimized to use available CPU instructions in performance-critical operations.\nTo enable the following instructions: SSE4.1 SSE4.2 AVX AVX2 AVX512F AVX512_VNNI AVX512_BF16 AVX_VNNI FMA, in other operations, rebuild TensorFlow with the appropriate compiler flags.\n2026-06-06 04:16:07.698975: E external/local_xla/xla/stream_executor/cuda/cuda_platform.cc:51] failed call to cuInit: INTERNAL: CUDA error: Failed call to cuInit: UNKNOWN ERROR (100)\n"
      },
      "filterflow_contract_match": true,
      "gradient_relative_delta": 1.1155734709921716e-07,
      "gradient_within_tolerance": true,
      "horizon": 4,
      "implementation_agreement": true,
      "max_iterations": 200,
      "max_row_residual": 0.000523258831560458,
      "scenario_id": "T4_extension"
    },
    {
      "bayesfilter": {
        "finite_difference_gradient": -1.9375573807578483,
        "finite_gradient": true,
        "finite_scalar": true,
        "gradient_delta_vs_finite_difference": -0.3084906963838714,
        "gradient_tape": -2.2460480771417197,
        "ledger": [
          {
            "column_residual": 0.0,
            "ess": [
              4.0
            ],
            "iterations_used": 0.0,
            "observation": 0.05,
            "observation_log_likelihoods": [
              [
                -14.434500620770569,
                0.3292493792294277,
                0.2392493792294279,
                -8.34075062077057
              ]
            ],
            "per_step_log_normalizer": [
              -0.40779575520549616
            ],
            "post_transport_log_weights": [
              [
                -1.3862943611198906,
                -1.3862943611198906,
                -1.3862943611198906,
                -1.3862943611198906
              ]
            ],
            "post_transport_particles": [
              [
                [
                  -1.5
                ],
                [
                  -0.2
                ],
                [
                  0.4
                ],
                [
                  1.2
                ]
              ]
            ],
            "post_update_log_weights": [
              [
                -15.412999226684963,
                -0.6492492266849667,
                -0.7392492266849665,
                -9.319249226684965
              ]
            ],
            "pre_log_weights": [
              [
                -1.3862943611198906,
                -1.3862943611198906,
                -1.3862943611198906,
                -1.3862943611198906
              ]
            ],
            "pre_particles": [
              [
                [
                  -1.5
                ],
                [
                  -0.2
                ],
                [
                  0.4
                ],
                [
                  1.2
                ]
              ]
            ],
            "predicted_particles": [
              [
                [
                  -1.0499999999999998
                ],
                [
                  -0.11999999999999998
                ],
                [
                  0.23999999999999996
                ],
                [
                  0.8999999999999999
                ]
              ]
            ],
            "resampling_flags": [
              false
            ],
            "row_residual": 0.0,
            "time_index": 0,
            "transition_noise": [
              [
                [
                  0.0
                ],
                [
                  0.1
                ],
                [
                  -0.2
                ],
                [
                  0.3
                ]
              ]
            ],
            "transport_cost_matrix": [
              [
                [
                  0.0,
                  0.8694533762057879,
                  1.857234726688103,
                  3.7504823151125404
                ],
                [
                  0.8694533762057879,
                  0.0,
                  0.18520900321543407,
                  1.0083601286173633
                ],
                [
                  1.857234726688103,
                  0.18520900321543407,
                  0.0,
                  0.32926045016077166
                ],
                [
                  3.7504823151125404,
                  1.0083601286173633,
                  0.32926045016077166,
                  0.0
                ]
              ]
            ],
            "transport_matrix": [
              [
                [
                  1.0,
                  0.0,
                  0.0,
                  0.0
                ],
                [
                  0.0,
                  1.0,
                  0.0,
                  0.0
                ],
                [
                  0.0,
                  0.0,
                  1.0,
                  0.0
                ],
                [
                  0.0,
                  0.0,
                  0.0,
                  1.0
                ]
              ]
            ],
            "unnormalized_log_weights": [
              [
                -15.82079498189046,
                -1.0570449818904628,
                -1.1470449818904627,
                -9.727044981890462
              ]
            ]
          },
          {
            "column_residual": 4.440892098500626e-16,
            "ess": [
              1.9963224490721692
            ],
            "iterations_used": 64.0,
            "observation": -0.1,
            "observation_log_likelihoods": [
              [
                0.6378129985502791,
                0.600184605729579,
                0.3323029649325397,
                0.25644718721865556
              ]
            ],
            "per_step_log_normalizer": [
              0.4702065294632004
            ],
            "post_transport_log_weights": [
              [
                -1.3862943611198906,
                -1.3862943611198906,
                -1.3862943611198906,
                -1.3862943611198906
              ]
            ],
            "post_transport_particles": [
              [
                [
                  -0.10725379754369961
                ],
                [
                  0.007144385536497962
                ],
                [
                  0.09897140639241322
                ],
                [
                  0.20906319838886572
                ]
              ]
            ],
            "post_update_log_weights": [
              [
                -1.218687892032812,
                -1.2563162848535119,
                -1.5241979256505513,
                -1.6000537033644355
              ]
            ],
            "pre_log_weights": [
              [
                -15.412999226684963,
                -0.6492492266849667,
                -0.7392492266849665,
                -9.319249226684965
              ]
            ],
            "pre_particles": [
              [
                [
                  -1.0499999999999998
                ],
                [
                  -0.11999999999999998
                ],
                [
                  0.23999999999999996
                ],
                [
                  0.8999999999999999
                ]
              ]
            ],
            "predicted_particles": [
              [
                [
                  -0.035077658280589716
                ],
                [
                  -0.01499893012445143
                ],
                [
                  0.06927998447468925
                ],
                [
                  0.08634423887220599
                ]
              ]
            ],
            "resampling_flags": [
              true
            ],
            "row_residual": 3.77402173978858e-06,
            "time_index": 1,
            "transition_noise": [
              [
                [
                  0.2
                ],
                [
                  -0.1
                ],
                [
                  0.0
                ],
                [
                  -0.3
                ]
              ]
            ],
            "transport_cost_matrix": [
              [
                [
                  0.0,
                  0.8717541671391313,
                  1.6772876743394944,
                  3.832634085497222
                ],
                [
                  0.8717541671391313,
                  0.0,
                  0.13062705522168047,
                  1.048644971085157
                ],
                [
                  1.6772876743394942,
                  0.13062705522168047,
                  0.0,
                  0.4390520467173149
                ],
                [
                  3.8326340854972223,
                  1.048644971085157,
                  0.4390520467173149,
                  0.0
                ]
              ]
            ],
            "transport_matrix": [
              [
                [
                  8.090882758186871e-07,
                  0.964593499624336,
                  0.03540946488531035,
                  4.2381758203283613e-10
                ],
                [
                  5.077533570965467e-10,
                  0.6468229507766239,
                  0.35317751430840955,
                  5.963653506383564e-07
                ],
                [
                  2.0675347610350378e-11,
                  0.3917581402664101,
                  0.6082337682434202,
                  6.976519634107565e-06
                ],
                [
                  3.238745748745771e-14,
                  0.08657685719091457,
                  0.9130682702262477,
                  0.00035115155278894126
                ]
              ]
            ],
            "unnormalized_log_weights": [
              [
                -0.7484813625696115,
                -0.7861097553903116,
                -1.0539913961873508,
                -1.129847173901235
              ]
            ]
          },
          {
            "column_residual": 2.220446049250313e-16,
            "ess": [
              3.8965506447777565
            ],
            "iterations_used": 205.0,
            "observation": 0.08,
            "observation_log_likelihoods": [
              [
                0.5115752766543713,
                0.571349190518894,
                0.6901879248680673,
                0.6489515476750221
              ]
            ],
            "per_step_log_normalizer": [
              0.6078880918752299
            ],
            "post_transport_log_weights": [
              [
                -1.3862943611198906,
                -1.3862943611198906,
                -1.3862943611198906,
                -1.3862943611198906
              ]
            ],
            "post_transport_particles": [
              [
                [
                  -0.028058328588835484
                ],
                [
                  -0.025188627563863312
                ],
                [
                  0.04998803983092252
                ],
                [
                  0.07478194749845143
                ]
              ]
            ],
            "post_update_log_weights": [
              [
                -1.4826071763407491,
                -1.4228332624762263,
                -1.303994528127053,
                -1.3452309053200984
              ]
            ],
            "pre_log_weights": [
              [
                -1.218687892032812,
                -1.2563162848535119,
                -1.5241979256505513,
                -1.6000537033644355
              ]
            ],
            "pre_particles": [
              [
                [
                  -0.035077658280589716
                ],
                [
                  -0.01499893012445143
                ],
                [
                  0.06927998447468925
                ],
                [
                  0.08634423887220599
                ]
              ]
            ],
            "predicted_particles": [
              [
                [
                  -0.03964083001218484
                ],
                [
                  -0.01763203929470432
                ],
                [
                  0.08499162788164577
                ],
                [
                  0.022347363248916
                ]
              ]
            ],
            "resampling_flags": [
              true
            ],
            "row_residual": 1.2530284045908502e-05,
            "time_index": 2,
            "transition_noise": [
              [
                [
                  -0.1
                ],
                [
                  0.0
                ],
                [
                  0.25
                ],
                [
                  -0.15
                ]
              ]
            ],
            "transport_cost_matrix": [
              [
                [
                  0.0,
                  0.07380162460065337,
                  1.9936184471529264,
                  2.6989047068324
                ],
                [
                  0.07380162460065343,
                  0.0,
                  1.3002635551711612,
                  1.880106640627413
                ],
                [
                  1.9936184471529264,
                  1.300263555171161,
                  0.0,
                  0.053305025615446255
                ],
                [
                  2.6989047068323995,
                  1.880106640627413,
                  0.053305025615446255,
                  0.0
                ]
              ]
            ],
            "transport_matrix": [
              [
                [
                  0.6504081985213845,
                  0.3496006924909379,
